=== Run information ===

Scheme:       weka.classifiers.trees.RandomTree -K 0 -M 1.0 -V 0.001 -S 1
Relation:     auscomp
Instances:    1484
Attributes:   6
              player1
              player2
              player3
              player4
              player5
              class
Test mode:    10-fold cross-validation

=== Classifier model (full training set) ===


RandomTree
==========

player4 = Anti-Mage
|   player2 = Anti-Mage : win (0/0)
|   player2 = Axe : win (0/0)
|   player2 = Bane : lose (1/0)
|   player2 = Bloodseeker : win (0/0)
|   player2 = CrystalMaiden : win (0/0)
|   player2 = DrowRanger : lose (1/0)
|   player2 = Earthshaker : win (1/0)
|   player2 = Juggernaut : win (1/0)
|   player2 = Mirana : lose (1/0)
|   player2 = ShadowFiend : win (0/0)
|   player2 = Morphling : win (0/0)
|   player2 = PhantomLancer : win (1/0)
|   player2 = Puck : win (0/0)
|   player2 = Pudge : win (0/0)
|   player2 = Razor : win (0/0)
|   player2 = SandKing : win (0/0)
|   player2 = StormSpirit : lose (1/0)
|   player2 = Sven : win (0/0)
|   player2 = Tiny : win (0/0)
|   player2 = VengefulSpirit : win (0/0)
|   player2 = Windranger : win (0/0)
|   player2 = Zeus : win (0/0)
|   player2 = Kunkka : win (0/0)
|   player2 = Lina : win (0/0)
|   player2 = Lich : win (0/0)
|   player2 = Lion : win (0/0)
|   player2 = ShadowShaman : win (0/0)
|   player2 = Slardar : win (0/0)
|   player2 = Tidehunter : win (0/0)
|   player2 = WitchDoctor : lose (1/0)
|   player2 = Riki : lose (1/0)
|   player2 = Enigma : win (1/0)
|   player2 = Tinker : lose (1/0)
|   player2 = Sniper : win (0/0)
|   player2 = Necrophos : win (1/0)
|   player2 = Warlock : win (0/0)
|   player2 = Beastmaster : win (0/0)
|   player2 = QueenofPain : lose (1/0)
|   player2 = Venomancer : win (1/0)
|   player2 = FacelessVoid
|   |   player1 = Anti-Mage : win (0/0)
|   |   player1 = Axe : win (0/0)
|   |   player1 = Bane : win (0/0)
|   |   player1 = Bloodseeker : win (0/0)
|   |   player1 = CrystalMaiden : win (0/0)
|   |   player1 = DrowRanger : win (0/0)
|   |   player1 = Earthshaker : win (0/0)
|   |   player1 = Juggernaut : win (0/0)
|   |   player1 = Mirana : win (0/0)
|   |   player1 = ShadowFiend : win (0/0)
|   |   player1 = Morphling : win (0/0)
|   |   player1 = PhantomLancer : win (0/0)
|   |   player1 = Puck : win (0/0)
|   |   player1 = Pudge : win (0/0)
|   |   player1 = Razor : win (0/0)
|   |   player1 = SandKing : win (0/0)
|   |   player1 = StormSpirit : win (0/0)
|   |   player1 = Sven : win (0/0)
|   |   player1 = Tiny : win (0/0)
|   |   player1 = VengefulSpirit : win (0/0)
|   |   player1 = Windranger : win (0/0)
|   |   player1 = Zeus : win (0/0)
|   |   player1 = Kunkka : win (0/0)
|   |   player1 = Lina : win (0/0)
|   |   player1 = Lich : win (0/0)
|   |   player1 = Lion : win (0/0)
|   |   player1 = ShadowShaman : lose (1/0)
|   |   player1 = Slardar : win (0/0)
|   |   player1 = Tidehunter : win (0/0)
|   |   player1 = WitchDoctor : win (0/0)
|   |   player1 = Riki : win (0/0)
|   |   player1 = Enigma : win (1/0)
|   |   player1 = Tinker : win (0/0)
|   |   player1 = Sniper : win (0/0)
|   |   player1 = Necrophos : win (0/0)
|   |   player1 = Warlock : win (0/0)
|   |   player1 = Beastmaster : win (0/0)
|   |   player1 = QueenofPain : win (0/0)
|   |   player1 = Venomancer : win (0/0)
|   |   player1 = FacelessVoid : win (0/0)
|   |   player1 = WraithKing : win (0/0)
|   |   player1 = DeathProphet : win (0/0)
|   |   player1 = PhantomAssassin : win (0/0)
|   |   player1 = Pugna : win (0/0)
|   |   player1 = TemplarAssassin : win (0/0)
|   |   player1 = Viper : win (0/0)
|   |   player1 = Luna : win (0/0)
|   |   player1 = DragonKnight : win (0/0)
|   |   player1 = Dazzle : win (0/0)
|   |   player1 = Clockwerk : win (0/0)
|   |   player1 = Leshrac : win (0/0)
|   |   player1 = Nature'sProphet : win (0/0)
|   |   player1 = Lifestealer : win (0/0)
|   |   player1 = DarkSeer : win (0/0)
|   |   player1 = Clinkz : win (0/0)
|   |   player1 = Omniknight : win (0/0)
|   |   player1 = Enchantress : win (0/0)
|   |   player1 = Huskar : win (0/0)
|   |   player1 = NightStalker : win (0/0)
|   |   player1 = Broodmother : win (0/0)
|   |   player1 = BountyHunter : win (0/0)
|   |   player1 = Weaver : win (0/0)
|   |   player1 = Jakiro : win (0/0)
|   |   player1 = Batrider : win (0/0)
|   |   player1 = Chen : win (0/0)
|   |   player1 = Spectre : win (0/0)
|   |   player1 = Doom : win (0/0)
|   |   player1 = AncientApparition : win (0/0)
|   |   player1 = Ursa : win (0/0)
|   |   player1 = SpiritBreaker : win (0/0)
|   |   player1 = Gyrocopter : win (0/0)
|   |   player1 = Alchemist : win (0/0)
|   |   player1 = Invoker : win (0/0)
|   |   player1 = Silencer : win (0/0)
|   |   player1 = OutworldDevourer : win (0/0)
|   |   player1 = Lycan : win (0/0)
|   |   player1 = Brewmaster : win (0/0)
|   |   player1 = ShadowDemon : win (0/0)
|   |   player1 = LoneDruid : win (0/0)
|   |   player1 = ChaosKnight : win (0/0)
|   |   player1 = Meepo : win (0/0)
|   |   player1 = TreantProtector : win (0/0)
|   |   player1 = OgreMagi : win (0/0)
|   |   player1 = Undying : win (0/0)
|   |   player1 = Rubick : win (0/0)
|   |   player1 = Disruptor : win (0/0)
|   |   player1 = NyxAssassin : win (0/0)
|   |   player1 = NagaSiren : win (0/0)
|   |   player1 = KeeperoftheLight : win (0/0)
|   |   player1 = Io : win (0/0)
|   |   player1 = Visage : win (0/0)
|   |   player1 = Slark : win (0/0)
|   |   player1 = Medusa : win (0/0)
|   |   player1 = TrollWarlord : win (0/0)
|   |   player1 = CentaurWarrunner : win (0/0)
|   |   player1 = Magnus : win (0/0)
|   |   player1 = Timbersaw : win (0/0)
|   |   player1 = Bristleback : win (0/0)
|   |   player1 = Tusk : win (0/0)
|   |   player1 = SkywrathMage : win (0/0)
|   |   player1 = Abaddon : win (0/0)
|   |   player1 = ElderTitan : win (0/0)
|   |   player1 = LegionCommander : win (0/0)
|   |   player1 = EmberSpirit : win (0/0)
|   |   player1 = EarthSpirit : win (0/0)
|   |   player1 = AbyssalUnderlord : win (0/0)
|   |   player1 = Terrorblade : win (0/0)
|   |   player1 = Phoenix : win (0/0)
|   |   player1 = Techies : win (0/0)
|   |   player1 = Oracle : win (0/0)
|   |   player1 = WinterWyvern : win (0/0)
|   |   player1 = ArcWarden : win (0/0)
|   |   player1 = undefined : win (0/0)
|   player2 = WraithKing
|   |   player5 = Anti-Mage : win (0/0)
|   |   player5 = Axe : win (0/0)
|   |   player5 = Bane : win (0/0)
|   |   player5 = Bloodseeker : win (0/0)
|   |   player5 = CrystalMaiden : win (0/0)
|   |   player5 = DrowRanger : win (0/0)
|   |   player5 = Earthshaker : win (0/0)
|   |   player5 = Juggernaut : win (0/0)
|   |   player5 = Mirana : win (0/0)
|   |   player5 = ShadowFiend : win (0/0)
|   |   player5 = Morphling : win (0/0)
|   |   player5 = PhantomLancer : win (0/0)
|   |   player5 = Puck : win (1/0)
|   |   player5 = Pudge : win (0/0)
|   |   player5 = Razor : win (0/0)
|   |   player5 = SandKing : win (0/0)
|   |   player5 = StormSpirit : win (0/0)
|   |   player5 = Sven : win (0/0)
|   |   player5 = Tiny : win (0/0)
|   |   player5 = VengefulSpirit : win (0/0)
|   |   player5 = Windranger : win (0/0)
|   |   player5 = Zeus : win (0/0)
|   |   player5 = Kunkka : win (0/0)
|   |   player5 = Lina : win (0/0)
|   |   player5 = Lich : win (0/0)
|   |   player5 = Lion : win (0/0)
|   |   player5 = ShadowShaman : win (0/0)
|   |   player5 = Slardar : win (0/0)
|   |   player5 = Tidehunter : win (0/0)
|   |   player5 = WitchDoctor : win (0/0)
|   |   player5 = Riki : win (0/0)
|   |   player5 = Enigma : win (0/0)
|   |   player5 = Tinker : win (0/0)
|   |   player5 = Sniper : win (0/0)
|   |   player5 = Necrophos : win (0/0)
|   |   player5 = Warlock : win (0/0)
|   |   player5 = Beastmaster : win (0/0)
|   |   player5 = QueenofPain : win (0/0)
|   |   player5 = Venomancer : win (0/0)
|   |   player5 = FacelessVoid : win (0/0)
|   |   player5 = WraithKing : win (0/0)
|   |   player5 = DeathProphet : win (0/0)
|   |   player5 = PhantomAssassin : win (0/0)
|   |   player5 = Pugna : win (0/0)
|   |   player5 = TemplarAssassin : win (0/0)
|   |   player5 = Viper : win (0/0)
|   |   player5 = Luna : win (0/0)
|   |   player5 = DragonKnight : win (0/0)
|   |   player5 = Dazzle : win (0/0)
|   |   player5 = Clockwerk : win (0/0)
|   |   player5 = Leshrac : win (0/0)
|   |   player5 = Nature'sProphet : win (0/0)
|   |   player5 = Lifestealer : win (0/0)
|   |   player5 = DarkSeer : win (0/0)
|   |   player5 = Clinkz : win (0/0)
|   |   player5 = Omniknight : win (0/0)
|   |   player5 = Enchantress : win (0/0)
|   |   player5 = Huskar : win (0/0)
|   |   player5 = NightStalker : win (0/0)
|   |   player5 = Broodmother : win (0/0)
|   |   player5 = BountyHunter : lose (1/0)
|   |   player5 = Weaver : win (0/0)
|   |   player5 = Jakiro : win (0/0)
|   |   player5 = Batrider : win (0/0)
|   |   player5 = Chen : win (0/0)
|   |   player5 = Spectre : win (0/0)
|   |   player5 = Doom : win (0/0)
|   |   player5 = AncientApparition : win (0/0)
|   |   player5 = Ursa : win (0/0)
|   |   player5 = SpiritBreaker : win (0/0)
|   |   player5 = Gyrocopter : win (0/0)
|   |   player5 = Alchemist : win (0/0)
|   |   player5 = Invoker : win (0/0)
|   |   player5 = Silencer : win (0/0)
|   |   player5 = OutworldDevourer : win (0/0)
|   |   player5 = Lycan : win (0/0)
|   |   player5 = Brewmaster : win (0/0)
|   |   player5 = ShadowDemon : win (0/0)
|   |   player5 = LoneDruid : win (0/0)
|   |   player5 = ChaosKnight : win (0/0)
|   |   player5 = Meepo : win (0/0)
|   |   player5 = TreantProtector : win (0/0)
|   |   player5 = OgreMagi : win (0/0)
|   |   player5 = Undying : win (0/0)
|   |   player5 = Rubick : win (0/0)
|   |   player5 = Disruptor : win (0/0)
|   |   player5 = NyxAssassin : win (0/0)
|   |   player5 = NagaSiren : win (0/0)
|   |   player5 = KeeperoftheLight : win (0/0)
|   |   player5 = Io : win (0/0)
|   |   player5 = Visage : win (0/0)
|   |   player5 = Slark : win (0/0)
|   |   player5 = Medusa : win (0/0)
|   |   player5 = TrollWarlord : win (0/0)
|   |   player5 = CentaurWarrunner : win (0/0)
|   |   player5 = Magnus : win (0/0)
|   |   player5 = Timbersaw : win (0/0)
|   |   player5 = Bristleback : win (0/0)
|   |   player5 = Tusk : win (0/0)
|   |   player5 = SkywrathMage : win (0/0)
|   |   player5 = Abaddon : win (0/0)
|   |   player5 = ElderTitan : win (0/0)
|   |   player5 = LegionCommander : win (0/0)
|   |   player5 = EmberSpirit : win (0/0)
|   |   player5 = EarthSpirit : win (0/0)
|   |   player5 = AbyssalUnderlord : win (0/0)
|   |   player5 = Terrorblade : win (0/0)
|   |   player5 = Phoenix : win (0/0)
|   |   player5 = Techies : win (0/0)
|   |   player5 = Oracle : win (0/0)
|   |   player5 = WinterWyvern : win (0/0)
|   |   player5 = ArcWarden : win (0/0)
|   |   player5 = undefined : win (0/0)
|   player2 = DeathProphet : win (0/0)
|   player2 = PhantomAssassin : win (0/0)
|   player2 = Pugna : win (0/0)
|   player2 = TemplarAssassin : win (0/0)
|   player2 = Viper : win (0/0)
|   player2 = Luna : win (0/0)
|   player2 = DragonKnight : lose (1/0)
|   player2 = Dazzle : win (0/0)
|   player2 = Clockwerk : win (0/0)
|   player2 = Leshrac : win (0/0)
|   player2 = Nature'sProphet : win (0/0)
|   player2 = Lifestealer : win (0/0)
|   player2 = DarkSeer : win (0/0)
|   player2 = Clinkz : win (0/0)
|   player2 = Omniknight : win (0/0)
|   player2 = Enchantress : win (0/0)
|   player2 = Huskar : win (2/0)
|   player2 = NightStalker : lose (1/0)
|   player2 = Broodmother : win (0/0)
|   player2 = BountyHunter
|   |   player1 = Anti-Mage : win (0/0)
|   |   player1 = Axe : win (0/0)
|   |   player1 = Bane : win (0/0)
|   |   player1 = Bloodseeker : win (0/0)
|   |   player1 = CrystalMaiden : win (0/0)
|   |   player1 = DrowRanger : win (0/0)
|   |   player1 = Earthshaker : win (0/0)
|   |   player1 = Juggernaut : win (0/0)
|   |   player1 = Mirana : win (0/0)
|   |   player1 = ShadowFiend : win (0/0)
|   |   player1 = Morphling : win (0/0)
|   |   player1 = PhantomLancer : win (0/0)
|   |   player1 = Puck : win (0/0)
|   |   player1 = Pudge : win (0/0)
|   |   player1 = Razor : win (0/0)
|   |   player1 = SandKing : win (0/0)
|   |   player1 = StormSpirit : win (0/0)
|   |   player1 = Sven : win (0/0)
|   |   player1 = Tiny : win (0/0)
|   |   player1 = VengefulSpirit : win (0/0)
|   |   player1 = Windranger : win (0/0)
|   |   player1 = Zeus : win (0/0)
|   |   player1 = Kunkka : win (0/0)
|   |   player1 = Lina : win (0/0)
|   |   player1 = Lich : win (0/0)
|   |   player1 = Lion : win (0/0)
|   |   player1 = ShadowShaman : win (0/0)
|   |   player1 = Slardar : win (0/0)
|   |   player1 = Tidehunter : win (0/0)
|   |   player1 = WitchDoctor : lose (1/0)
|   |   player1 = Riki : win (0/0)
|   |   player1 = Enigma : win (0/0)
|   |   player1 = Tinker : win (0/0)
|   |   player1 = Sniper : win (0/0)
|   |   player1 = Necrophos : win (0/0)
|   |   player1 = Warlock : win (0/0)
|   |   player1 = Beastmaster : win (0/0)
|   |   player1 = QueenofPain : win (0/0)
|   |   player1 = Venomancer : win (0/0)
|   |   player1 = FacelessVoid : win (0/0)
|   |   player1 = WraithKing : win (0/0)
|   |   player1 = DeathProphet : win (0/0)
|   |   player1 = PhantomAssassin : win (0/0)
|   |   player1 = Pugna : win (0/0)
|   |   player1 = TemplarAssassin : win (0/0)
|   |   player1 = Viper : win (0/0)
|   |   player1 = Luna : win (0/0)
|   |   player1 = DragonKnight : win (0/0)
|   |   player1 = Dazzle : win (0/0)
|   |   player1 = Clockwerk : win (0/0)
|   |   player1 = Leshrac : win (0/0)
|   |   player1 = Nature'sProphet : win (0/0)
|   |   player1 = Lifestealer : win (0/0)
|   |   player1 = DarkSeer : win (0/0)
|   |   player1 = Clinkz : win (0/0)
|   |   player1 = Omniknight : win (0/0)
|   |   player1 = Enchantress : win (0/0)
|   |   player1 = Huskar : win (0/0)
|   |   player1 = NightStalker : win (0/0)
|   |   player1 = Broodmother : win (0/0)
|   |   player1 = BountyHunter : win (0/0)
|   |   player1 = Weaver : win (0/0)
|   |   player1 = Jakiro : win (0/0)
|   |   player1 = Batrider : win (0/0)
|   |   player1 = Chen : win (0/0)
|   |   player1 = Spectre : win (0/0)
|   |   player1 = Doom : win (0/0)
|   |   player1 = AncientApparition : win (0/0)
|   |   player1 = Ursa : win (0/0)
|   |   player1 = SpiritBreaker : win (0/0)
|   |   player1 = Gyrocopter : win (0/0)
|   |   player1 = Alchemist : win (0/0)
|   |   player1 = Invoker : win (0/0)
|   |   player1 = Silencer : win (0/0)
|   |   player1 = OutworldDevourer : win (0/0)
|   |   player1 = Lycan : win (0/0)
|   |   player1 = Brewmaster : win (0/0)
|   |   player1 = ShadowDemon : win (0/0)
|   |   player1 = LoneDruid : win (0/0)
|   |   player1 = ChaosKnight : win (0/0)
|   |   player1 = Meepo : win (0/0)
|   |   player1 = TreantProtector : win (0/0)
|   |   player1 = OgreMagi : win (0/0)
|   |   player1 = Undying : win (0/0)
|   |   player1 = Rubick : win (0/0)
|   |   player1 = Disruptor : win (0/0)
|   |   player1 = NyxAssassin : win (0/0)
|   |   player1 = NagaSiren : win (0/0)
|   |   player1 = KeeperoftheLight : win (0/0)
|   |   player1 = Io : win (0/0)
|   |   player1 = Visage : win (0/0)
|   |   player1 = Slark : win (0/0)
|   |   player1 = Medusa : win (0/0)
|   |   player1 = TrollWarlord : win (0/0)
|   |   player1 = CentaurWarrunner : win (0/0)
|   |   player1 = Magnus : win (0/0)
|   |   player1 = Timbersaw : win (1/0)
|   |   player1 = Bristleback : win (0/0)
|   |   player1 = Tusk : win (0/0)
|   |   player1 = SkywrathMage : win (0/0)
|   |   player1 = Abaddon : win (0/0)
|   |   player1 = ElderTitan : win (0/0)
|   |   player1 = LegionCommander : win (0/0)
|   |   player1 = EmberSpirit : win (0/0)
|   |   player1 = EarthSpirit : win (0/0)
|   |   player1 = AbyssalUnderlord : win (0/0)
|   |   player1 = Terrorblade : win (0/0)
|   |   player1 = Phoenix : win (0/0)
|   |   player1 = Techies : win (0/0)
|   |   player1 = Oracle : win (0/0)
|   |   player1 = WinterWyvern : win (0/0)
|   |   player1 = ArcWarden : win (0/0)
|   |   player1 = undefined : win (0/0)
|   player2 = Weaver : win (0/0)
|   player2 = Jakiro : lose (1/0)
|   player2 = Batrider : win (0/0)
|   player2 = Chen : win (0/0)
|   player2 = Spectre : win (0/0)
|   player2 = Doom : win (0/0)
|   player2 = AncientApparition : win (0/0)
|   player2 = Ursa : win (0/0)
|   player2 = SpiritBreaker : win (0/0)
|   player2 = Gyrocopter : win (0/0)
|   player2 = Alchemist : lose (1/0)
|   player2 = Invoker : win (0/0)
|   player2 = Silencer : win (0/0)
|   player2 = OutworldDevourer : win (0/0)
|   player2 = Lycan : win (0/0)
|   player2 = Brewmaster : win (0/0)
|   player2 = ShadowDemon : win (0/0)
|   player2 = LoneDruid : win (0/0)
|   player2 = ChaosKnight : win (0/0)
|   player2 = Meepo : win (0/0)
|   player2 = TreantProtector : lose (1/0)
|   player2 = OgreMagi : win (0/0)
|   player2 = Undying : win (0/0)
|   player2 = Rubick : lose (1/0)
|   player2 = Disruptor : win (0/0)
|   player2 = NyxAssassin : win (0/0)
|   player2 = NagaSiren : win (0/0)
|   player2 = KeeperoftheLight : win (0/0)
|   player2 = Io : win (0/0)
|   player2 = Visage : win (0/0)
|   player2 = Slark : lose (1/0)
|   player2 = Medusa : win (0/0)
|   player2 = TrollWarlord : win (1/0)
|   player2 = CentaurWarrunner : win (0/0)
|   player2 = Magnus : win (0/0)
|   player2 = Timbersaw : win (0/0)
|   player2 = Bristleback : win (1/0)
|   player2 = Tusk : win (0/0)
|   player2 = SkywrathMage : lose (1/0)
|   player2 = Abaddon : win (0/0)
|   player2 = ElderTitan : win (0/0)
|   player2 = LegionCommander : win (0/0)
|   player2 = EmberSpirit : win (0/0)
|   player2 = EarthSpirit : win (0/0)
|   player2 = AbyssalUnderlord : win (0/0)
|   player2 = Terrorblade : win (0/0)
|   player2 = Phoenix : win (0/0)
|   player2 = Techies : win (0/0)
|   player2 = Oracle : win (0/0)
|   player2 = WinterWyvern : win (0/0)
|   player2 = ArcWarden : win (0/0)
|   player2 = undefined : win (1/0)
player4 = Axe
|   player3 = Anti-Mage : lose (1/0)
|   player3 = Axe : win (0/0)
|   player3 = Bane : win (0/0)
|   player3 = Bloodseeker : lose (1/0)
|   player3 = CrystalMaiden : win (0/0)
|   player3 = DrowRanger : win (0/0)
|   player3 = Earthshaker : win (0/0)
|   player3 = Juggernaut : win (0/0)
|   player3 = Mirana : win (0/0)
|   player3 = ShadowFiend : lose (2/0)
|   player3 = Morphling : win (0/0)
|   player3 = PhantomLancer : win (0/0)
|   player3 = Puck : win (0/0)
|   player3 = Pudge : win (0/0)
|   player3 = Razor : win (0/0)
|   player3 = SandKing : win (0/0)
|   player3 = StormSpirit : win (0/0)
|   player3 = Sven : win (0/0)
|   player3 = Tiny : win (1/0)
|   player3 = VengefulSpirit : win (0/0)
|   player3 = Windranger : win (0/0)
|   player3 = Zeus : win (0/0)
|   player3 = Kunkka : win (1/0)
|   player3 = Lina : win (0/0)
|   player3 = Lich : lose (1/0)
|   player3 = Lion : win (0/0)
|   player3 = ShadowShaman : win (1/0)
|   player3 = Slardar : win (0/0)
|   player3 = Tidehunter : win (0/0)
|   player3 = WitchDoctor : lose (1/0)
|   player3 = Riki : win (1/0)
|   player3 = Enigma : win (2/0)
|   player3 = Tinker : win (0/0)
|   player3 = Sniper : win (0/0)
|   player3 = Necrophos : win (0/0)
|   player3 = Warlock : win (0/0)
|   player3 = Beastmaster : win (0/0)
|   player3 = QueenofPain : win (0/0)
|   player3 = Venomancer : win (0/0)
|   player3 = FacelessVoid : lose (2/0)
|   player3 = WraithKing : win (2/0)
|   player3 = DeathProphet : lose (1/0)
|   player3 = PhantomAssassin : win (0/0)
|   player3 = Pugna : win (0/0)
|   player3 = TemplarAssassin : lose (1/0)
|   player3 = Viper : win (0/0)
|   player3 = Luna : win (0/0)
|   player3 = DragonKnight : win (0/0)
|   player3 = Dazzle : win (1/0)
|   player3 = Clockwerk : win (0/0)
|   player3 = Leshrac : win (0/0)
|   player3 = Nature'sProphet : win (1/0)
|   player3 = Lifestealer
|   |   player1 = Anti-Mage : win (0/0)
|   |   player1 = Axe : win (0/0)
|   |   player1 = Bane : win (0/0)
|   |   player1 = Bloodseeker : win (0/0)
|   |   player1 = CrystalMaiden : win (0/0)
|   |   player1 = DrowRanger : win (0/0)
|   |   player1 = Earthshaker : win (0/0)
|   |   player1 = Juggernaut : win (0/0)
|   |   player1 = Mirana : win (0/0)
|   |   player1 = ShadowFiend : win (0/0)
|   |   player1 = Morphling : win (0/0)
|   |   player1 = PhantomLancer : win (0/0)
|   |   player1 = Puck : win (0/0)
|   |   player1 = Pudge : win (0/0)
|   |   player1 = Razor : win (0/0)
|   |   player1 = SandKing : win (0/0)
|   |   player1 = StormSpirit : win (0/0)
|   |   player1 = Sven : win (0/0)
|   |   player1 = Tiny : win (0/0)
|   |   player1 = VengefulSpirit : win (0/0)
|   |   player1 = Windranger : win (0/0)
|   |   player1 = Zeus : win (0/0)
|   |   player1 = Kunkka : win (0/0)
|   |   player1 = Lina : win (0/0)
|   |   player1 = Lich : win (0/0)
|   |   player1 = Lion : win (0/0)
|   |   player1 = ShadowShaman : win (0/0)
|   |   player1 = Slardar : win (0/0)
|   |   player1 = Tidehunter : win (0/0)
|   |   player1 = WitchDoctor : win (0/0)
|   |   player1 = Riki : win (1/0)
|   |   player1 = Enigma : win (0/0)
|   |   player1 = Tinker : win (0/0)
|   |   player1 = Sniper : win (0/0)
|   |   player1 = Necrophos : win (0/0)
|   |   player1 = Warlock : win (0/0)
|   |   player1 = Beastmaster : win (0/0)
|   |   player1 = QueenofPain : win (0/0)
|   |   player1 = Venomancer : win (0/0)
|   |   player1 = FacelessVoid : win (0/0)
|   |   player1 = WraithKing : win (0/0)
|   |   player1 = DeathProphet : win (0/0)
|   |   player1 = PhantomAssassin : win (0/0)
|   |   player1 = Pugna : win (0/0)
|   |   player1 = TemplarAssassin : win (0/0)
|   |   player1 = Viper : win (0/0)
|   |   player1 = Luna : win (0/0)
|   |   player1 = DragonKnight : win (0/0)
|   |   player1 = Dazzle : win (0/0)
|   |   player1 = Clockwerk : win (0/0)
|   |   player1 = Leshrac : win (0/0)
|   |   player1 = Nature'sProphet : win (0/0)
|   |   player1 = Lifestealer : win (0/0)
|   |   player1 = DarkSeer : win (0/0)
|   |   player1 = Clinkz : win (0/0)
|   |   player1 = Omniknight : win (0/0)
|   |   player1 = Enchantress : win (0/0)
|   |   player1 = Huskar : win (0/0)
|   |   player1 = NightStalker : win (0/0)
|   |   player1 = Broodmother : win (0/0)
|   |   player1 = BountyHunter : win (0/0)
|   |   player1 = Weaver : win (0/0)
|   |   player1 = Jakiro : win (0/0)
|   |   player1 = Batrider : win (0/0)
|   |   player1 = Chen : win (0/0)
|   |   player1 = Spectre : win (0/0)
|   |   player1 = Doom : win (0/0)
|   |   player1 = AncientApparition : win (0/0)
|   |   player1 = Ursa : win (0/0)
|   |   player1 = SpiritBreaker : win (0/0)
|   |   player1 = Gyrocopter : win (0/0)
|   |   player1 = Alchemist : lose (1/0)
|   |   player1 = Invoker : win (0/0)
|   |   player1 = Silencer : win (0/0)
|   |   player1 = OutworldDevourer : win (0/0)
|   |   player1 = Lycan : win (0/0)
|   |   player1 = Brewmaster : win (0/0)
|   |   player1 = ShadowDemon : win (0/0)
|   |   player1 = LoneDruid : win (0/0)
|   |   player1 = ChaosKnight : win (0/0)
|   |   player1 = Meepo : win (0/0)
|   |   player1 = TreantProtector : win (0/0)
|   |   player1 = OgreMagi : win (0/0)
|   |   player1 = Undying : win (0/0)
|   |   player1 = Rubick : win (0/0)
|   |   player1 = Disruptor : win (0/0)
|   |   player1 = NyxAssassin : win (0/0)
|   |   player1 = NagaSiren : win (0/0)
|   |   player1 = KeeperoftheLight : win (0/0)
|   |   player1 = Io : win (0/0)
|   |   player1 = Visage : win (0/0)
|   |   player1 = Slark : win (0/0)
|   |   player1 = Medusa : win (0/0)
|   |   player1 = TrollWarlord : win (0/0)
|   |   player1 = CentaurWarrunner : win (0/0)
|   |   player1 = Magnus : win (0/0)
|   |   player1 = Timbersaw : win (0/0)
|   |   player1 = Bristleback : win (0/0)
|   |   player1 = Tusk : win (0/0)
|   |   player1 = SkywrathMage : win (0/0)
|   |   player1 = Abaddon : win (0/0)
|   |   player1 = ElderTitan : win (0/0)
|   |   player1 = LegionCommander : win (0/0)
|   |   player1 = EmberSpirit : win (0/0)
|   |   player1 = EarthSpirit : win (0/0)
|   |   player1 = AbyssalUnderlord : win (0/0)
|   |   player1 = Terrorblade : win (0/0)
|   |   player1 = Phoenix : win (0/0)
|   |   player1 = Techies : win (0/0)
|   |   player1 = Oracle : win (0/0)
|   |   player1 = WinterWyvern : win (0/0)
|   |   player1 = ArcWarden : win (0/0)
|   |   player1 = undefined : win (0/0)
|   player3 = DarkSeer : win (0/0)
|   player3 = Clinkz : win (0/0)
|   player3 = Omniknight : win (0/0)
|   player3 = Enchantress : win (0/0)
|   player3 = Huskar : win (0/0)
|   player3 = NightStalker : win (0/0)
|   player3 = Broodmother : win (0/0)
|   player3 = BountyHunter : win (0/0)
|   player3 = Weaver : win (1/0)
|   player3 = Jakiro : win (0/0)
|   player3 = Batrider : win (0/0)
|   player3 = Chen : win (0/0)
|   player3 = Spectre : lose (1/0)
|   player3 = Doom : win (0/0)
|   player3 = AncientApparition : win (0/0)
|   player3 = Ursa : win (1/0)
|   player3 = SpiritBreaker : win (0/0)
|   player3 = Gyrocopter : win (0/0)
|   player3 = Alchemist : win (0/0)
|   player3 = Invoker : lose (1/0)
|   player3 = Silencer : lose (2/0)
|   player3 = OutworldDevourer : win (1/0)
|   player3 = Lycan : win (0/0)
|   player3 = Brewmaster : win (0/0)
|   player3 = ShadowDemon : win (0/0)
|   player3 = LoneDruid : win (0/0)
|   player3 = ChaosKnight : win (0/0)
|   player3 = Meepo : lose (1/0)
|   player3 = TreantProtector : win (0/0)
|   player3 = OgreMagi : lose (1/0)
|   player3 = Undying : win (0/0)
|   player3 = Rubick : lose (1/0)
|   player3 = Disruptor : win (0/0)
|   player3 = NyxAssassin : win (0/0)
|   player3 = NagaSiren : win (0/0)
|   player3 = KeeperoftheLight : win (0/0)
|   player3 = Io : win (0/0)
|   player3 = Visage : win (0/0)
|   player3 = Slark : lose (1/0)
|   player3 = Medusa : win (0/0)
|   player3 = TrollWarlord : win (0/0)
|   player3 = CentaurWarrunner : win (0/0)
|   player3 = Magnus : win (0/0)
|   player3 = Timbersaw : win (0/0)
|   player3 = Bristleback : win (0/0)
|   player3 = Tusk : win (0/0)
|   player3 = SkywrathMage : win (0/0)
|   player3 = Abaddon : win (2/0)
|   player3 = ElderTitan : win (0/0)
|   player3 = LegionCommander : win (0/0)
|   player3 = EmberSpirit : win (0/0)
|   player3 = EarthSpirit : win (0/0)
|   player3 = AbyssalUnderlord : win (0/0)
|   player3 = Terrorblade : win (0/0)
|   player3 = Phoenix : win (0/0)
|   player3 = Techies : win (0/0)
|   player3 = Oracle : win (0/0)
|   player3 = WinterWyvern : win (0/0)
|   player3 = ArcWarden : win (0/0)
|   player3 = undefined : win (0/0)
player4 = Bane
|   player1 = Anti-Mage : win (0/0)
|   player1 = Axe : win (0/0)
|   player1 = Bane : win (0/0)
|   player1 = Bloodseeker : win (0/0)
|   player1 = CrystalMaiden : win (0/0)
|   player1 = DrowRanger : win (0/0)
|   player1 = Earthshaker : win (0/0)
|   player1 = Juggernaut : win (0/0)
|   player1 = Mirana : win (0/0)
|   player1 = ShadowFiend : win (0/0)
|   player1 = Morphling : win (0/0)
|   player1 = PhantomLancer : win (0/0)
|   player1 = Puck : win (0/0)
|   player1 = Pudge : win (0/0)
|   player1 = Razor : win (0/0)
|   player1 = SandKing : win (0/0)
|   player1 = StormSpirit : win (1/0)
|   player1 = Sven : win (0/0)
|   player1 = Tiny : win (0/0)
|   player1 = VengefulSpirit : win (0/0)
|   player1 = Windranger : win (0/0)
|   player1 = Zeus : win (0/0)
|   player1 = Kunkka : lose (1/0)
|   player1 = Lina : win (0/0)
|   player1 = Lich : win (0/0)
|   player1 = Lion : win (0/0)
|   player1 = ShadowShaman : win (0/0)
|   player1 = Slardar : win (0/0)
|   player1 = Tidehunter : win (0/0)
|   player1 = WitchDoctor : win (0/0)
|   player1 = Riki : win (0/0)
|   player1 = Enigma : win (0/0)
|   player1 = Tinker : win (0/0)
|   player1 = Sniper : win (0/0)
|   player1 = Necrophos : win (0/0)
|   player1 = Warlock : win (0/0)
|   player1 = Beastmaster : win (0/0)
|   player1 = QueenofPain : win (0/0)
|   player1 = Venomancer : win (0/0)
|   player1 = FacelessVoid : win (0/0)
|   player1 = WraithKing : win (0/0)
|   player1 = DeathProphet : win (0/0)
|   player1 = PhantomAssassin : win (0/0)
|   player1 = Pugna : win (0/0)
|   player1 = TemplarAssassin : win (0/0)
|   player1 = Viper : win (0/0)
|   player1 = Luna : win (0/0)
|   player1 = DragonKnight : win (0/0)
|   player1 = Dazzle : win (0/0)
|   player1 = Clockwerk : win (0/0)
|   player1 = Leshrac : win (0/0)
|   player1 = Nature'sProphet : win (0/0)
|   player1 = Lifestealer : win (0/0)
|   player1 = DarkSeer : win (0/0)
|   player1 = Clinkz : win (0/0)
|   player1 = Omniknight : win (0/0)
|   player1 = Enchantress : win (0/0)
|   player1 = Huskar : win (0/0)
|   player1 = NightStalker : win (0/0)
|   player1 = Broodmother : win (0/0)
|   player1 = BountyHunter : win (0/0)
|   player1 = Weaver : win (0/0)
|   player1 = Jakiro : win (0/0)
|   player1 = Batrider : win (0/0)
|   player1 = Chen : win (0/0)
|   player1 = Spectre : win (0/0)
|   player1 = Doom : win (0/0)
|   player1 = AncientApparition : win (0/0)
|   player1 = Ursa : lose (1/0)
|   player1 = SpiritBreaker : win (0/0)
|   player1 = Gyrocopter : win (0/0)
|   player1 = Alchemist : lose (1/0)
|   player1 = Invoker : win (0/0)
|   player1 = Silencer : win (0/0)
|   player1 = OutworldDevourer : win (0/0)
|   player1 = Lycan : win (0/0)
|   player1 = Brewmaster : win (0/0)
|   player1 = ShadowDemon : win (1/0)
|   player1 = LoneDruid : win (0/0)
|   player1 = ChaosKnight : win (0/0)
|   player1 = Meepo : win (0/0)
|   player1 = TreantProtector : win (0/0)
|   player1 = OgreMagi : win (0/0)
|   player1 = Undying : win (0/0)
|   player1 = Rubick : win (0/0)
|   player1 = Disruptor : win (0/0)
|   player1 = NyxAssassin : win (0/0)
|   player1 = NagaSiren : win (0/0)
|   player1 = KeeperoftheLight : win (0/0)
|   player1 = Io : win (0/0)
|   player1 = Visage : win (0/0)
|   player1 = Slark : win (0/0)
|   player1 = Medusa : win (0/0)
|   player1 = TrollWarlord : win (0/0)
|   player1 = CentaurWarrunner : win (0/0)
|   player1 = Magnus : win (0/0)
|   player1 = Timbersaw : win (0/0)
|   player1 = Bristleback : win (0/0)
|   player1 = Tusk : win (0/0)
|   player1 = SkywrathMage : win (0/0)
|   player1 = Abaddon : win (0/0)
|   player1 = ElderTitan : win (0/0)
|   player1 = LegionCommander : win (0/0)
|   player1 = EmberSpirit : win (0/0)
|   player1 = EarthSpirit : win (0/0)
|   player1 = AbyssalUnderlord : win (0/0)
|   player1 = Terrorblade : win (0/0)
|   player1 = Phoenix : win (0/0)
|   player1 = Techies : win (0/0)
|   player1 = Oracle : win (0/0)
|   player1 = WinterWyvern : win (0/0)
|   player1 = ArcWarden : win (0/0)
|   player1 = undefined : win (0/0)
player4 = Bloodseeker
|   player1 = Anti-Mage : win (0/0)
|   player1 = Axe : lose (1/0)
|   player1 = Bane : win (0/0)
|   player1 = Bloodseeker : win (0/0)
|   player1 = CrystalMaiden : win (0/0)
|   player1 = DrowRanger : win (2/0)
|   player1 = Earthshaker : lose (1/0)
|   player1 = Juggernaut : win (0/0)
|   player1 = Mirana : win (0/0)
|   player1 = ShadowFiend : win (0/0)
|   player1 = Morphling : win (0/0)
|   player1 = PhantomLancer : win (0/0)
|   player1 = Puck : win (0/0)
|   player1 = Pudge : win (0/0)
|   player1 = Razor : win (0/0)
|   player1 = SandKing : win (0/0)
|   player1 = StormSpirit : win (0/0)
|   player1 = Sven : win (0/0)
|   player1 = Tiny : lose (1/0)
|   player1 = VengefulSpirit : win (0/0)
|   player1 = Windranger : win (1/0)
|   player1 = Zeus : win (0/0)
|   player1 = Kunkka : win (0/0)
|   player1 = Lina : win (0/0)
|   player1 = Lich : win (0/0)
|   player1 = Lion : lose (1/0)
|   player1 = ShadowShaman : win (1/0)
|   player1 = Slardar : win (0/0)
|   player1 = Tidehunter : lose (1/0)
|   player1 = WitchDoctor : win (0/0)
|   player1 = Riki : lose (1/0)
|   player1 = Enigma : win (0/0)
|   player1 = Tinker : win (1/0)
|   player1 = Sniper : win (0/0)
|   player1 = Necrophos : win (0/0)
|   player1 = Warlock : win (0/0)
|   player1 = Beastmaster : win (0/0)
|   player1 = QueenofPain : win (0/0)
|   player1 = Venomancer : win (0/0)
|   player1 = FacelessVoid : win (0/0)
|   player1 = WraithKing : win (1/0)
|   player1 = DeathProphet : win (0/0)
|   player1 = PhantomAssassin : win (0/0)
|   player1 = Pugna : win (0/0)
|   player1 = TemplarAssassin : win (0/0)
|   player1 = Viper : win (0/0)
|   player1 = Luna : win (0/0)
|   player1 = DragonKnight : win (0/0)
|   player1 = Dazzle : win (0/0)
|   player1 = Clockwerk : win (0/0)
|   player1 = Leshrac : win (0/0)
|   player1 = Nature'sProphet : win (0/0)
|   player1 = Lifestealer : win (0/0)
|   player1 = DarkSeer : win (0/0)
|   player1 = Clinkz : win (0/0)
|   player1 = Omniknight : win (0/0)
|   player1 = Enchantress : win (0/0)
|   player1 = Huskar : win (0/0)
|   player1 = NightStalker : win (0/0)
|   player1 = Broodmother : win (0/0)
|   player1 = BountyHunter : win (0/0)
|   player1 = Weaver : win (0/0)
|   player1 = Jakiro : win (0/0)
|   player1 = Batrider : win (0/0)
|   player1 = Chen : win (0/0)
|   player1 = Spectre : win (0/0)
|   player1 = Doom : win (0/0)
|   player1 = AncientApparition : win (0/0)
|   player1 = Ursa : win (0/0)
|   player1 = SpiritBreaker : win (0/0)
|   player1 = Gyrocopter : win (0/0)
|   player1 = Alchemist
|   |   player2 = Anti-Mage : win (0/0)
|   |   player2 = Axe : win (0/0)
|   |   player2 = Bane : win (0/0)
|   |   player2 = Bloodseeker : win (0/0)
|   |   player2 = CrystalMaiden : win (0/0)
|   |   player2 = DrowRanger : win (0/0)
|   |   player2 = Earthshaker : win (0/0)
|   |   player2 = Juggernaut : win (0/0)
|   |   player2 = Mirana : win (0/0)
|   |   player2 = ShadowFiend : win (0/0)
|   |   player2 = Morphling : win (0/0)
|   |   player2 = PhantomLancer : win (0/0)
|   |   player2 = Puck : win (0/0)
|   |   player2 = Pudge : win (0/0)
|   |   player2 = Razor : win (0/0)
|   |   player2 = SandKing : win (0/0)
|   |   player2 = StormSpirit : win (0/0)
|   |   player2 = Sven : win (0/0)
|   |   player2 = Tiny : win (0/0)
|   |   player2 = VengefulSpirit : win (0/0)
|   |   player2 = Windranger : win (0/0)
|   |   player2 = Zeus : win (0/0)
|   |   player2 = Kunkka : win (0/0)
|   |   player2 = Lina : win (0/0)
|   |   player2 = Lich : win (0/0)
|   |   player2 = Lion : win (0/0)
|   |   player2 = ShadowShaman : win (0/0)
|   |   player2 = Slardar : win (0/0)
|   |   player2 = Tidehunter : win (0/0)
|   |   player2 = WitchDoctor : win (0/0)
|   |   player2 = Riki : win (0/0)
|   |   player2 = Enigma : win (0/0)
|   |   player2 = Tinker : win (0/0)
|   |   player2 = Sniper : win (0/0)
|   |   player2 = Necrophos : win (0/0)
|   |   player2 = Warlock : win (0/0)
|   |   player2 = Beastmaster : win (0/0)
|   |   player2 = QueenofPain : win (0/0)
|   |   player2 = Venomancer : win (0/0)
|   |   player2 = FacelessVoid : win (0/0)
|   |   player2 = WraithKing : win (0/0)
|   |   player2 = DeathProphet : win (0/0)
|   |   player2 = PhantomAssassin : win (0/0)
|   |   player2 = Pugna : win (0/0)
|   |   player2 = TemplarAssassin : win (0/0)
|   |   player2 = Viper : win (0/0)
|   |   player2 = Luna : win (0/0)
|   |   player2 = DragonKnight : win (0/0)
|   |   player2 = Dazzle : win (1/0)
|   |   player2 = Clockwerk : win (0/0)
|   |   player2 = Leshrac : win (0/0)
|   |   player2 = Nature'sProphet : win (0/0)
|   |   player2 = Lifestealer : win (0/0)
|   |   player2 = DarkSeer : win (0/0)
|   |   player2 = Clinkz : win (0/0)
|   |   player2 = Omniknight : win (0/0)
|   |   player2 = Enchantress : win (0/0)
|   |   player2 = Huskar : win (0/0)
|   |   player2 = NightStalker : win (0/0)
|   |   player2 = Broodmother : win (0/0)
|   |   player2 = BountyHunter : win (0/0)
|   |   player2 = Weaver : win (0/0)
|   |   player2 = Jakiro : win (0/0)
|   |   player2 = Batrider : win (0/0)
|   |   player2 = Chen : win (0/0)
|   |   player2 = Spectre : win (0/0)
|   |   player2 = Doom : win (0/0)
|   |   player2 = AncientApparition : win (0/0)
|   |   player2 = Ursa : win (0/0)
|   |   player2 = SpiritBreaker : win (0/0)
|   |   player2 = Gyrocopter : win (0/0)
|   |   player2 = Alchemist : win (0/0)
|   |   player2 = Invoker : win (0/0)
|   |   player2 = Silencer : win (0/0)
|   |   player2 = OutworldDevourer : win (0/0)
|   |   player2 = Lycan : win (0/0)
|   |   player2 = Brewmaster : win (0/0)
|   |   player2 = ShadowDemon : win (0/0)
|   |   player2 = LoneDruid : win (0/0)
|   |   player2 = ChaosKnight : win (0/0)
|   |   player2 = Meepo : win (0/0)
|   |   player2 = TreantProtector : win (0/0)
|   |   player2 = OgreMagi : win (0/0)
|   |   player2 = Undying : win (0/0)
|   |   player2 = Rubick : win (0/0)
|   |   player2 = Disruptor : win (0/0)
|   |   player2 = NyxAssassin : win (0/0)
|   |   player2 = NagaSiren : win (0/0)
|   |   player2 = KeeperoftheLight : win (0/0)
|   |   player2 = Io : win (0/0)
|   |   player2 = Visage : win (0/0)
|   |   player2 = Slark : win (0/0)
|   |   player2 = Medusa : win (0/0)
|   |   player2 = TrollWarlord : win (0/0)
|   |   player2 = CentaurWarrunner : win (0/0)
|   |   player2 = Magnus : win (0/0)
|   |   player2 = Timbersaw : lose (1/0)
|   |   player2 = Bristleback : win (0/0)
|   |   player2 = Tusk : win (0/0)
|   |   player2 = SkywrathMage : win (0/0)
|   |   player2 = Abaddon : win (0/0)
|   |   player2 = ElderTitan : win (0/0)
|   |   player2 = LegionCommander : win (0/0)
|   |   player2 = EmberSpirit : win (0/0)
|   |   player2 = EarthSpirit : win (0/0)
|   |   player2 = AbyssalUnderlord : win (0/0)
|   |   player2 = Terrorblade : win (0/0)
|   |   player2 = Phoenix : win (0/0)
|   |   player2 = Techies : win (0/0)
|   |   player2 = Oracle : win (0/0)
|   |   player2 = WinterWyvern : win (0/0)
|   |   player2 = ArcWarden : win (0/0)
|   |   player2 = undefined : win (0/0)
|   player1 = Invoker : win (0/0)
|   player1 = Silencer : win (0/0)
|   player1 = OutworldDevourer : win (0/0)
|   player1 = Lycan : win (0/0)
|   player1 = Brewmaster : win (0/0)
|   player1 = ShadowDemon : win (0/0)
|   player1 = LoneDruid : win (0/0)
|   player1 = ChaosKnight : win (0/0)
|   player1 = Meepo : win (0/0)
|   player1 = TreantProtector : win (0/0)
|   player1 = OgreMagi : win (0/0)
|   player1 = Undying : win (0/0)
|   player1 = Rubick : win (0/0)
|   player1 = Disruptor : win (0/0)
|   player1 = NyxAssassin : win (1/0)
|   player1 = NagaSiren : win (0/0)
|   player1 = KeeperoftheLight : win (0/0)
|   player1 = Io : win (0/0)
|   player1 = Visage : win (0/0)
|   player1 = Slark : win (1/0)
|   player1 = Medusa : win (0/0)
|   player1 = TrollWarlord : lose (1/0)
|   player1 = CentaurWarrunner : win (0/0)
|   player1 = Magnus : win (1/0)
|   player1 = Timbersaw : win (0/0)
|   player1 = Bristleback : win (0/0)
|   player1 = Tusk : win (0/0)
|   player1 = SkywrathMage : lose (1/0)
|   player1 = Abaddon : win (0/0)
|   player1 = ElderTitan : win (1/0)
|   player1 = LegionCommander : win (0/0)
|   player1 = EmberSpirit : win (0/0)
|   player1 = EarthSpirit : win (0/0)
|   player1 = AbyssalUnderlord : win (0/0)
|   player1 = Terrorblade : lose (1/0)
|   player1 = Phoenix : win (0/0)
|   player1 = Techies : win (0/0)
|   player1 = Oracle : win (0/0)
|   player1 = WinterWyvern : win (0/0)
|   player1 = ArcWarden : win (0/0)
|   player1 = undefined : win (0/0)
player4 = CrystalMaiden
|   player3 = Anti-Mage : win (0/0)
|   player3 = Axe : win (0/0)
|   player3 = Bane : win (0/0)
|   player3 = Bloodseeker : win (1/0)
|   player3 = CrystalMaiden : win (0/0)
|   player3 = DrowRanger : lose (1/0)
|   player3 = Earthshaker : win (0/0)
|   player3 = Juggernaut : win (0/0)
|   player3 = Mirana : lose (1/0)
|   player3 = ShadowFiend : win (0/0)
|   player3 = Morphling : win (0/0)
|   player3 = PhantomLancer : lose (1/0)
|   player3 = Puck : win (0/0)
|   player3 = Pudge : win (0/0)
|   player3 = Razor : win (0/0)
|   player3 = SandKing : win (0/0)
|   player3 = StormSpirit : lose (1/0)
|   player3 = Sven : win (0/0)
|   player3 = Tiny : lose (1/0)
|   player3 = VengefulSpirit : win (0/0)
|   player3 = Windranger : win (0/0)
|   player3 = Zeus : win (0/0)
|   player3 = Kunkka : win (1/0)
|   player3 = Lina : win (0/0)
|   player3 = Lich : win (0/0)
|   player3 = Lion : win (0/0)
|   player3 = ShadowShaman : win (1/0)
|   player3 = Slardar : lose (1/0)
|   player3 = Tidehunter : win (0/0)
|   player3 = WitchDoctor : win (0/0)
|   player3 = Riki : win (0/0)
|   player3 = Enigma : win (0/0)
|   player3 = Tinker : win (0/0)
|   player3 = Sniper : win (0/0)
|   player3 = Necrophos : win (0/0)
|   player3 = Warlock : win (0/0)
|   player3 = Beastmaster : win (0/0)
|   player3 = QueenofPain : win (0/0)
|   player3 = Venomancer : win (0/0)
|   player3 = FacelessVoid : win (0/0)
|   player3 = WraithKing : win (0/0)
|   player3 = DeathProphet : win (0/0)
|   player3 = PhantomAssassin : win (0/0)
|   player3 = Pugna : win (0/0)
|   player3 = TemplarAssassin : win (0/0)
|   player3 = Viper : win (0/0)
|   player3 = Luna : win (1/0)
|   player3 = DragonKnight : win (1/0)
|   player3 = Dazzle : win (0/0)
|   player3 = Clockwerk : win (0/0)
|   player3 = Leshrac : lose (1/0)
|   player3 = Nature'sProphet : win (0/0)
|   player3 = Lifestealer : win (0/0)
|   player3 = DarkSeer : win (0/0)
|   player3 = Clinkz : win (0/0)
|   player3 = Omniknight : win (0/0)
|   player3 = Enchantress : win (0/0)
|   player3 = Huskar : win (0/0)
|   player3 = NightStalker : win (0/0)
|   player3 = Broodmother : win (0/0)
|   player3 = BountyHunter : win (1/0)
|   player3 = Weaver : win (0/0)
|   player3 = Jakiro : win (0/0)
|   player3 = Batrider : win (0/0)
|   player3 = Chen : win (0/0)
|   player3 = Spectre : win (0/0)
|   player3 = Doom : win (0/0)
|   player3 = AncientApparition : win (0/0)
|   player3 = Ursa : win (0/0)
|   player3 = SpiritBreaker : win (0/0)
|   player3 = Gyrocopter : win (0/0)
|   player3 = Alchemist : lose (1/0)
|   player3 = Invoker : win (0/0)
|   player3 = Silencer : win (0/0)
|   player3 = OutworldDevourer : win (0/0)
|   player3 = Lycan : win (0/0)
|   player3 = Brewmaster : win (0/0)
|   player3 = ShadowDemon : win (0/0)
|   player3 = LoneDruid : win (0/0)
|   player3 = ChaosKnight : win (0/0)
|   player3 = Meepo : win (0/0)
|   player3 = TreantProtector : win (0/0)
|   player3 = OgreMagi : win (0/0)
|   player3 = Undying : win (0/0)
|   player3 = Rubick : win (0/0)
|   player3 = Disruptor : lose (1/0)
|   player3 = NyxAssassin : win (0/0)
|   player3 = NagaSiren : win (0/0)
|   player3 = KeeperoftheLight : win (0/0)
|   player3 = Io : win (0/0)
|   player3 = Visage : win (0/0)
|   player3 = Slark : win (1/0)
|   player3 = Medusa : win (0/0)
|   player3 = TrollWarlord : win (0/0)
|   player3 = CentaurWarrunner : win (0/0)
|   player3 = Magnus : win (0/0)
|   player3 = Timbersaw : lose (1/0)
|   player3 = Bristleback : win (0/0)
|   player3 = Tusk : win (0/0)
|   player3 = SkywrathMage : win (0/0)
|   player3 = Abaddon : win (0/0)
|   player3 = ElderTitan : win (0/0)
|   player3 = LegionCommander : win (0/0)
|   player3 = EmberSpirit : win (0/0)
|   player3 = EarthSpirit : win (0/0)
|   player3 = AbyssalUnderlord : win (0/0)
|   player3 = Terrorblade : win (0/0)
|   player3 = Phoenix : win (0/0)
|   player3 = Techies : win (0/0)
|   player3 = Oracle : win (0/0)
|   player3 = WinterWyvern : win (0/0)
|   player3 = ArcWarden : win (0/0)
|   player3 = undefined : win (0/0)
player4 = DrowRanger
|   player1 = Anti-Mage : win (0/0)
|   player1 = Axe : win (0/0)
|   player1 = Bane : win (0/0)
|   player1 = Bloodseeker : win (0/0)
|   player1 = CrystalMaiden : win (1/0)
|   player1 = DrowRanger : win (0/0)
|   player1 = Earthshaker : lose (1/0)
|   player1 = Juggernaut : win (2/0)
|   player1 = Mirana
|   |   player2 = Anti-Mage : win (0/0)
|   |   player2 = Axe : win (0/0)
|   |   player2 = Bane : win (0/0)
|   |   player2 = Bloodseeker : win (0/0)
|   |   player2 = CrystalMaiden : win (0/0)
|   |   player2 = DrowRanger : win (0/0)
|   |   player2 = Earthshaker : win (1/0)
|   |   player2 = Juggernaut : win (0/0)
|   |   player2 = Mirana : win (0/0)
|   |   player2 = ShadowFiend : win (0/0)
|   |   player2 = Morphling : win (0/0)
|   |   player2 = PhantomLancer : win (0/0)
|   |   player2 = Puck : win (0/0)
|   |   player2 = Pudge : win (0/0)
|   |   player2 = Razor : win (0/0)
|   |   player2 = SandKing : win (0/0)
|   |   player2 = StormSpirit : win (0/0)
|   |   player2 = Sven : win (0/0)
|   |   player2 = Tiny : win (0/0)
|   |   player2 = VengefulSpirit : win (0/0)
|   |   player2 = Windranger : win (0/0)
|   |   player2 = Zeus : win (0/0)
|   |   player2 = Kunkka : win (0/0)
|   |   player2 = Lina : win (0/0)
|   |   player2 = Lich : win (0/0)
|   |   player2 = Lion : win (0/0)
|   |   player2 = ShadowShaman : win (0/0)
|   |   player2 = Slardar : win (0/0)
|   |   player2 = Tidehunter : win (0/0)
|   |   player2 = WitchDoctor : win (0/0)
|   |   player2 = Riki : win (0/0)
|   |   player2 = Enigma : win (0/0)
|   |   player2 = Tinker : win (0/0)
|   |   player2 = Sniper : win (0/0)
|   |   player2 = Necrophos : win (0/0)
|   |   player2 = Warlock : win (0/0)
|   |   player2 = Beastmaster : win (0/0)
|   |   player2 = QueenofPain : win (0/0)
|   |   player2 = Venomancer : win (0/0)
|   |   player2 = FacelessVoid : win (0/0)
|   |   player2 = WraithKing : win (0/0)
|   |   player2 = DeathProphet : win (0/0)
|   |   player2 = PhantomAssassin : win (0/0)
|   |   player2 = Pugna : win (0/0)
|   |   player2 = TemplarAssassin : win (0/0)
|   |   player2 = Viper : win (0/0)
|   |   player2 = Luna : win (0/0)
|   |   player2 = DragonKnight : win (0/0)
|   |   player2 = Dazzle : win (0/0)
|   |   player2 = Clockwerk : win (0/0)
|   |   player2 = Leshrac : win (0/0)
|   |   player2 = Nature'sProphet : win (0/0)
|   |   player2 = Lifestealer : win (0/0)
|   |   player2 = DarkSeer : win (0/0)
|   |   player2 = Clinkz : win (0/0)
|   |   player2 = Omniknight : win (0/0)
|   |   player2 = Enchantress : win (0/0)
|   |   player2 = Huskar : win (0/0)
|   |   player2 = NightStalker : win (0/0)
|   |   player2 = Broodmother : win (0/0)
|   |   player2 = BountyHunter : win (0/0)
|   |   player2 = Weaver : win (0/0)
|   |   player2 = Jakiro : win (0/0)
|   |   player2 = Batrider : win (0/0)
|   |   player2 = Chen : win (0/0)
|   |   player2 = Spectre : win (0/0)
|   |   player2 = Doom : win (0/0)
|   |   player2 = AncientApparition : win (0/0)
|   |   player2 = Ursa : win (0/0)
|   |   player2 = SpiritBreaker : win (0/0)
|   |   player2 = Gyrocopter : win (0/0)
|   |   player2 = Alchemist : win (0/0)
|   |   player2 = Invoker : win (0/0)
|   |   player2 = Silencer : win (0/0)
|   |   player2 = OutworldDevourer : win (0/0)
|   |   player2 = Lycan : win (0/0)
|   |   player2 = Brewmaster : win (0/0)
|   |   player2 = ShadowDemon : win (0/0)
|   |   player2 = LoneDruid : win (0/0)
|   |   player2 = ChaosKnight : win (0/0)
|   |   player2 = Meepo : win (0/0)
|   |   player2 = TreantProtector : win (0/0)
|   |   player2 = OgreMagi : win (0/0)
|   |   player2 = Undying : win (0/0)
|   |   player2 = Rubick : win (0/0)
|   |   player2 = Disruptor : win (0/0)
|   |   player2 = NyxAssassin : win (0/0)
|   |   player2 = NagaSiren : win (0/0)
|   |   player2 = KeeperoftheLight : lose (1/0)
|   |   player2 = Io : win (0/0)
|   |   player2 = Visage : win (0/0)
|   |   player2 = Slark : win (0/0)
|   |   player2 = Medusa : win (0/0)
|   |   player2 = TrollWarlord : win (0/0)
|   |   player2 = CentaurWarrunner : win (0/0)
|   |   player2 = Magnus : win (0/0)
|   |   player2 = Timbersaw : win (0/0)
|   |   player2 = Bristleback : win (0/0)
|   |   player2 = Tusk : win (0/0)
|   |   player2 = SkywrathMage : win (0/0)
|   |   player2 = Abaddon : win (0/0)
|   |   player2 = ElderTitan : win (0/0)
|   |   player2 = LegionCommander : win (0/0)
|   |   player2 = EmberSpirit : win (0/0)
|   |   player2 = EarthSpirit : win (0/0)
|   |   player2 = AbyssalUnderlord : win (0/0)
|   |   player2 = Terrorblade : win (0/0)
|   |   player2 = Phoenix : win (0/0)
|   |   player2 = Techies : win (0/0)
|   |   player2 = Oracle : win (0/0)
|   |   player2 = WinterWyvern : win (0/0)
|   |   player2 = ArcWarden : win (0/0)
|   |   player2 = undefined : win (0/0)
|   player1 = ShadowFiend : win (0/0)
|   player1 = Morphling : win (0/0)
|   player1 = PhantomLancer : win (0/0)
|   player1 = Puck : win (0/0)
|   player1 = Pudge : win (1/0)
|   player1 = Razor : win (0/0)
|   player1 = SandKing : lose (1/0)
|   player1 = StormSpirit : win (0/0)
|   player1 = Sven : win (0/0)
|   player1 = Tiny : win (0/0)
|   player1 = VengefulSpirit : win (1/0)
|   player1 = Windranger : win (0/0)
|   player1 = Zeus : win (2/0)
|   player1 = Kunkka : win (0/0)
|   player1 = Lina : lose (1/0)
|   player1 = Lich : win (0/0)
|   player1 = Lion : win (1/0)
|   player1 = ShadowShaman : win (0/0)
|   player1 = Slardar : win (1/0)
|   player1 = Tidehunter : win (0/0)
|   player1 = WitchDoctor : win (0/0)
|   player1 = Riki : win (0/0)
|   player1 = Enigma : win (0/0)
|   player1 = Tinker : lose (1/0)
|   player1 = Sniper : win (0/0)
|   player1 = Necrophos : win (1/0)
|   player1 = Warlock : win (0/0)
|   player1 = Beastmaster : win (0/0)
|   player1 = QueenofPain : win (0/0)
|   player1 = Venomancer : win (1/0)
|   player1 = FacelessVoid
|   |   player2 = Anti-Mage : win (0/0)
|   |   player2 = Axe : win (0/0)
|   |   player2 = Bane : win (0/0)
|   |   player2 = Bloodseeker : win (0/0)
|   |   player2 = CrystalMaiden : win (0/0)
|   |   player2 = DrowRanger : win (0/0)
|   |   player2 = Earthshaker : win (0/0)
|   |   player2 = Juggernaut : lose (1/0)
|   |   player2 = Mirana : win (1/0)
|   |   player2 = ShadowFiend : win (0/0)
|   |   player2 = Morphling : win (0/0)
|   |   player2 = PhantomLancer : win (0/0)
|   |   player2 = Puck : win (0/0)
|   |   player2 = Pudge : win (0/0)
|   |   player2 = Razor : win (0/0)
|   |   player2 = SandKing : win (0/0)
|   |   player2 = StormSpirit : win (0/0)
|   |   player2 = Sven : win (0/0)
|   |   player2 = Tiny : win (0/0)
|   |   player2 = VengefulSpirit : win (0/0)
|   |   player2 = Windranger : win (0/0)
|   |   player2 = Zeus : win (0/0)
|   |   player2 = Kunkka : win (0/0)
|   |   player2 = Lina : win (0/0)
|   |   player2 = Lich : win (0/0)
|   |   player2 = Lion : win (0/0)
|   |   player2 = ShadowShaman : win (0/0)
|   |   player2 = Slardar : win (0/0)
|   |   player2 = Tidehunter : win (0/0)
|   |   player2 = WitchDoctor : win (0/0)
|   |   player2 = Riki : win (0/0)
|   |   player2 = Enigma : win (0/0)
|   |   player2 = Tinker : win (0/0)
|   |   player2 = Sniper : win (0/0)
|   |   player2 = Necrophos : win (0/0)
|   |   player2 = Warlock : win (0/0)
|   |   player2 = Beastmaster : win (0/0)
|   |   player2 = QueenofPain : win (0/0)
|   |   player2 = Venomancer : win (0/0)
|   |   player2 = FacelessVoid : win (0/0)
|   |   player2 = WraithKing : win (0/0)
|   |   player2 = DeathProphet : win (0/0)
|   |   player2 = PhantomAssassin : win (0/0)
|   |   player2 = Pugna : win (0/0)
|   |   player2 = TemplarAssassin : win (0/0)
|   |   player2 = Viper : win (0/0)
|   |   player2 = Luna : win (1/0)
|   |   player2 = DragonKnight : win (0/0)
|   |   player2 = Dazzle : win (0/0)
|   |   player2 = Clockwerk : win (0/0)
|   |   player2 = Leshrac : win (0/0)
|   |   player2 = Nature'sProphet : win (0/0)
|   |   player2 = Lifestealer : win (0/0)
|   |   player2 = DarkSeer : win (0/0)
|   |   player2 = Clinkz : win (0/0)
|   |   player2 = Omniknight : win (0/0)
|   |   player2 = Enchantress : win (0/0)
|   |   player2 = Huskar : win (0/0)
|   |   player2 = NightStalker : win (0/0)
|   |   player2 = Broodmother : win (0/0)
|   |   player2 = BountyHunter : win (0/0)
|   |   player2 = Weaver : win (0/0)
|   |   player2 = Jakiro : win (0/0)
|   |   player2 = Batrider : win (0/0)
|   |   player2 = Chen : win (0/0)
|   |   player2 = Spectre : win (0/0)
|   |   player2 = Doom : win (0/0)
|   |   player2 = AncientApparition : win (0/0)
|   |   player2 = Ursa : win (0/0)
|   |   player2 = SpiritBreaker : win (0/0)
|   |   player2 = Gyrocopter : win (0/0)
|   |   player2 = Alchemist : win (0/0)
|   |   player2 = Invoker : win (0/0)
|   |   player2 = Silencer : win (0/0)
|   |   player2 = OutworldDevourer : win (0/0)
|   |   player2 = Lycan : win (0/0)
|   |   player2 = Brewmaster : win (0/0)
|   |   player2 = ShadowDemon : win (0/0)
|   |   player2 = LoneDruid : win (0/0)
|   |   player2 = ChaosKnight : win (0/0)
|   |   player2 = Meepo : win (0/0)
|   |   player2 = TreantProtector : win (0/0)
|   |   player2 = OgreMagi : win (0/0)
|   |   player2 = Undying : win (0/0)
|   |   player2 = Rubick : win (0/0)
|   |   player2 = Disruptor : win (0/0)
|   |   player2 = NyxAssassin : win (0/0)
|   |   player2 = NagaSiren : win (0/0)
|   |   player2 = KeeperoftheLight : win (0/0)
|   |   player2 = Io : win (0/0)
|   |   player2 = Visage : win (0/0)
|   |   player2 = Slark : win (0/0)
|   |   player2 = Medusa : win (0/0)
|   |   player2 = TrollWarlord : win (0/0)
|   |   player2 = CentaurWarrunner : win (0/0)
|   |   player2 = Magnus : win (0/0)
|   |   player2 = Timbersaw : win (0/0)
|   |   player2 = Bristleback : win (0/0)
|   |   player2 = Tusk : win (0/0)
|   |   player2 = SkywrathMage : win (0/0)
|   |   player2 = Abaddon : win (0/0)
|   |   player2 = ElderTitan : win (0/0)
|   |   player2 = LegionCommander : win (0/0)
|   |   player2 = EmberSpirit : win (0/0)
|   |   player2 = EarthSpirit : win (0/0)
|   |   player2 = AbyssalUnderlord : win (0/0)
|   |   player2 = Terrorblade : win (0/0)
|   |   player2 = Phoenix : win (0/0)
|   |   player2 = Techies : win (0/0)
|   |   player2 = Oracle : win (0/0)
|   |   player2 = WinterWyvern : win (0/0)
|   |   player2 = ArcWarden : win (0/0)
|   |   player2 = undefined : win (0/0)
|   player1 = WraithKing : win (1/0)
|   player1 = DeathProphet : win (0/0)
|   player1 = PhantomAssassin : win (1/0)
|   player1 = Pugna : win (0/0)
|   player1 = TemplarAssassin : win (1/0)
|   player1 = Viper : win (0/0)
|   player1 = Luna : win (0/0)
|   player1 = DragonKnight : lose (1/0)
|   player1 = Dazzle : lose (1/0)
|   player1 = Clockwerk : win (0/0)
|   player1 = Leshrac : win (0/0)
|   player1 = Nature'sProphet : win (0/0)
|   player1 = Lifestealer : win (2/0)
|   player1 = DarkSeer : win (0/0)
|   player1 = Clinkz : lose (1/0)
|   player1 = Omniknight : win (1/0)
|   player1 = Enchantress : win (0/0)
|   player1 = Huskar : win (0/0)
|   player1 = NightStalker : win (0/0)
|   player1 = Broodmother : win (0/0)
|   player1 = BountyHunter : win (0/0)
|   player1 = Weaver
|   |   player5 = Anti-Mage : win (0/0)
|   |   player5 = Axe : win (0/0)
|   |   player5 = Bane : win (0/0)
|   |   player5 = Bloodseeker : win (0/0)
|   |   player5 = CrystalMaiden : win (0/0)
|   |   player5 = DrowRanger : win (0/0)
|   |   player5 = Earthshaker : win (0/0)
|   |   player5 = Juggernaut : lose (1/0)
|   |   player5 = Mirana : win (0/0)
|   |   player5 = ShadowFiend : win (0/0)
|   |   player5 = Morphling : win (0/0)
|   |   player5 = PhantomLancer : win (0/0)
|   |   player5 = Puck : win (0/0)
|   |   player5 = Pudge : win (0/0)
|   |   player5 = Razor : win (0/0)
|   |   player5 = SandKing : win (0/0)
|   |   player5 = StormSpirit : win (0/0)
|   |   player5 = Sven : win (0/0)
|   |   player5 = Tiny : win (0/0)
|   |   player5 = VengefulSpirit : win (0/0)
|   |   player5 = Windranger : win (0/0)
|   |   player5 = Zeus : win (0/0)
|   |   player5 = Kunkka : win (0/0)
|   |   player5 = Lina : win (0/0)
|   |   player5 = Lich : win (0/0)
|   |   player5 = Lion : win (0/0)
|   |   player5 = ShadowShaman : win (0/0)
|   |   player5 = Slardar : win (0/0)
|   |   player5 = Tidehunter : win (0/0)
|   |   player5 = WitchDoctor : win (0/0)
|   |   player5 = Riki : win (0/0)
|   |   player5 = Enigma : win (0/0)
|   |   player5 = Tinker : win (0/0)
|   |   player5 = Sniper : win (0/0)
|   |   player5 = Necrophos : win (0/0)
|   |   player5 = Warlock : win (0/0)
|   |   player5 = Beastmaster : win (0/0)
|   |   player5 = QueenofPain : win (0/0)
|   |   player5 = Venomancer : win (0/0)
|   |   player5 = FacelessVoid : win (0/0)
|   |   player5 = WraithKing : win (0/0)
|   |   player5 = DeathProphet : win (0/0)
|   |   player5 = PhantomAssassin : win (0/0)
|   |   player5 = Pugna : win (0/0)
|   |   player5 = TemplarAssassin : win (0/0)
|   |   player5 = Viper : win (0/0)
|   |   player5 = Luna : win (0/0)
|   |   player5 = DragonKnight : win (0/0)
|   |   player5 = Dazzle : win (0/0)
|   |   player5 = Clockwerk : win (0/0)
|   |   player5 = Leshrac : win (0/0)
|   |   player5 = Nature'sProphet : win (0/0)
|   |   player5 = Lifestealer : win (0/0)
|   |   player5 = DarkSeer : win (0/0)
|   |   player5 = Clinkz : win (0/0)
|   |   player5 = Omniknight : win (0/0)
|   |   player5 = Enchantress : win (0/0)
|   |   player5 = Huskar : win (0/0)
|   |   player5 = NightStalker : win (0/0)
|   |   player5 = Broodmother : win (0/0)
|   |   player5 = BountyHunter : win (0/0)
|   |   player5 = Weaver : win (0/0)
|   |   player5 = Jakiro : win (0/0)
|   |   player5 = Batrider : win (0/0)
|   |   player5 = Chen : win (1/0)
|   |   player5 = Spectre : win (0/0)
|   |   player5 = Doom : win (0/0)
|   |   player5 = AncientApparition : win (0/0)
|   |   player5 = Ursa : win (0/0)
|   |   player5 = SpiritBreaker : win (0/0)
|   |   player5 = Gyrocopter : win (0/0)
|   |   player5 = Alchemist : win (0/0)
|   |   player5 = Invoker : win (0/0)
|   |   player5 = Silencer : win (0/0)
|   |   player5 = OutworldDevourer : win (0/0)
|   |   player5 = Lycan : win (0/0)
|   |   player5 = Brewmaster : win (0/0)
|   |   player5 = ShadowDemon : win (0/0)
|   |   player5 = LoneDruid : win (0/0)
|   |   player5 = ChaosKnight : win (0/0)
|   |   player5 = Meepo : win (0/0)
|   |   player5 = TreantProtector : win (0/0)
|   |   player5 = OgreMagi : win (0/0)
|   |   player5 = Undying : win (0/0)
|   |   player5 = Rubick : win (0/0)
|   |   player5 = Disruptor : win (0/0)
|   |   player5 = NyxAssassin : win (0/0)
|   |   player5 = NagaSiren : win (0/0)
|   |   player5 = KeeperoftheLight : win (0/0)
|   |   player5 = Io : win (0/0)
|   |   player5 = Visage : win (0/0)
|   |   player5 = Slark : win (0/0)
|   |   player5 = Medusa : win (0/0)
|   |   player5 = TrollWarlord : win (0/0)
|   |   player5 = CentaurWarrunner : win (0/0)
|   |   player5 = Magnus : win (0/0)
|   |   player5 = Timbersaw : win (0/0)
|   |   player5 = Bristleback : win (0/0)
|   |   player5 = Tusk : win (0/0)
|   |   player5 = SkywrathMage : win (0/0)
|   |   player5 = Abaddon : win (0/0)
|   |   player5 = ElderTitan : win (0/0)
|   |   player5 = LegionCommander : win (0/0)
|   |   player5 = EmberSpirit : win (0/0)
|   |   player5 = EarthSpirit : win (0/0)
|   |   player5 = AbyssalUnderlord : win (0/0)
|   |   player5 = Terrorblade : win (0/0)
|   |   player5 = Phoenix : win (0/0)
|   |   player5 = Techies : win (0/0)
|   |   player5 = Oracle : win (0/0)
|   |   player5 = WinterWyvern : win (0/0)
|   |   player5 = ArcWarden : win (0/0)
|   |   player5 = undefined : win (0/0)
|   player1 = Jakiro : win (0/0)
|   player1 = Batrider : win (0/0)
|   player1 = Chen : win (0/0)
|   player1 = Spectre : win (0/0)
|   player1 = Doom : win (0/0)
|   player1 = AncientApparition : win (0/0)
|   player1 = Ursa : win (0/0)
|   player1 = SpiritBreaker : win (0/0)
|   player1 = Gyrocopter : win (0/0)
|   player1 = Alchemist : win (0/0)
|   player1 = Invoker : lose (3/0)
|   player1 = Silencer : win (0/0)
|   player1 = OutworldDevourer : win (0/0)
|   player1 = Lycan : lose (1/0)
|   player1 = Brewmaster : win (0/0)
|   player1 = ShadowDemon : win (0/0)
|   player1 = LoneDruid : win (0/0)
|   player1 = ChaosKnight : win (0/0)
|   player1 = Meepo : win (1/0)
|   player1 = TreantProtector : win (0/0)
|   player1 = OgreMagi : win (0/0)
|   player1 = Undying : win (0/0)
|   player1 = Rubick : win (0/0)
|   player1 = Disruptor : win (0/0)
|   player1 = NyxAssassin : win (0/0)
|   player1 = NagaSiren : win (0/0)
|   player1 = KeeperoftheLight : win (0/0)
|   player1 = Io : win (0/0)
|   player1 = Visage : win (0/0)
|   player1 = Slark : win (0/0)
|   player1 = Medusa : win (0/0)
|   player1 = TrollWarlord : win (0/0)
|   player1 = CentaurWarrunner : win (0/0)
|   player1 = Magnus : win (0/0)
|   player1 = Timbersaw : win (0/0)
|   player1 = Bristleback : win (0/0)
|   player1 = Tusk : win (0/0)
|   player1 = SkywrathMage : win (0/0)
|   player1 = Abaddon : win (0/0)
|   player1 = ElderTitan : lose (1/0)
|   player1 = LegionCommander : win (0/0)
|   player1 = EmberSpirit : win (0/0)
|   player1 = EarthSpirit : win (0/0)
|   player1 = AbyssalUnderlord : win (0/0)
|   player1 = Terrorblade : win (0/0)
|   player1 = Phoenix : win (0/0)
|   player1 = Techies : win (0/0)
|   player1 = Oracle : win (1/0)
|   player1 = WinterWyvern : win (0/0)
|   player1 = ArcWarden : win (0/0)
|   player1 = undefined : win (0/0)
player4 = Earthshaker
|   player3 = Anti-Mage : win (0/0)
|   player3 = Axe
|   |   player1 = Anti-Mage : win (0/0)
|   |   player1 = Axe : win (0/0)
|   |   player1 = Bane : win (0/0)
|   |   player1 = Bloodseeker : win (0/0)
|   |   player1 = CrystalMaiden : win (0/0)
|   |   player1 = DrowRanger : win (0/0)
|   |   player1 = Earthshaker : win (0/0)
|   |   player1 = Juggernaut : win (0/0)
|   |   player1 = Mirana : win (0/0)
|   |   player1 = ShadowFiend : win (0/0)
|   |   player1 = Morphling : win (0/0)
|   |   player1 = PhantomLancer : win (0/0)
|   |   player1 = Puck : win (0/0)
|   |   player1 = Pudge : win (0/0)
|   |   player1 = Razor : win (0/0)
|   |   player1 = SandKing : win (0/0)
|   |   player1 = StormSpirit : win (0/0)
|   |   player1 = Sven : win (0/0)
|   |   player1 = Tiny : win (0/0)
|   |   player1 = VengefulSpirit : win (0/0)
|   |   player1 = Windranger : win (0/0)
|   |   player1 = Zeus : win (0/0)
|   |   player1 = Kunkka : win (0/0)
|   |   player1 = Lina : win (0/0)
|   |   player1 = Lich : win (0/0)
|   |   player1 = Lion : win (0/0)
|   |   player1 = ShadowShaman : win (0/0)
|   |   player1 = Slardar : win (0/0)
|   |   player1 = Tidehunter : win (0/0)
|   |   player1 = WitchDoctor : win (0/0)
|   |   player1 = Riki : win (0/0)
|   |   player1 = Enigma : win (0/0)
|   |   player1 = Tinker : win (0/0)
|   |   player1 = Sniper : win (0/0)
|   |   player1 = Necrophos : win (0/0)
|   |   player1 = Warlock : win (0/0)
|   |   player1 = Beastmaster : win (0/0)
|   |   player1 = QueenofPain : win (0/0)
|   |   player1 = Venomancer : win (0/0)
|   |   player1 = FacelessVoid : win (0/0)
|   |   player1 = WraithKing : win (0/0)
|   |   player1 = DeathProphet : win (0/0)
|   |   player1 = PhantomAssassin : win (0/0)
|   |   player1 = Pugna : win (0/0)
|   |   player1 = TemplarAssassin : win (1/0)
|   |   player1 = Viper : win (0/0)
|   |   player1 = Luna : win (0/0)
|   |   player1 = DragonKnight : win (0/0)
|   |   player1 = Dazzle : win (0/0)
|   |   player1 = Clockwerk : win (0/0)
|   |   player1 = Leshrac : win (0/0)
|   |   player1 = Nature'sProphet : win (0/0)
|   |   player1 = Lifestealer : win (0/0)
|   |   player1 = DarkSeer : win (0/0)
|   |   player1 = Clinkz : win (0/0)
|   |   player1 = Omniknight : win (0/0)
|   |   player1 = Enchantress : win (0/0)
|   |   player1 = Huskar : win (0/0)
|   |   player1 = NightStalker : win (0/0)
|   |   player1 = Broodmother : win (0/0)
|   |   player1 = BountyHunter : win (0/0)
|   |   player1 = Weaver : win (0/0)
|   |   player1 = Jakiro : win (0/0)
|   |   player1 = Batrider : win (0/0)
|   |   player1 = Chen : win (0/0)
|   |   player1 = Spectre : win (0/0)
|   |   player1 = Doom : win (0/0)
|   |   player1 = AncientApparition : win (0/0)
|   |   player1 = Ursa : win (0/0)
|   |   player1 = SpiritBreaker : win (0/0)
|   |   player1 = Gyrocopter : win (0/0)
|   |   player1 = Alchemist : win (0/0)
|   |   player1 = Invoker : win (0/0)
|   |   player1 = Silencer : win (0/0)
|   |   player1 = OutworldDevourer : win (0/0)
|   |   player1 = Lycan : win (0/0)
|   |   player1 = Brewmaster : win (0/0)
|   |   player1 = ShadowDemon : win (0/0)
|   |   player1 = LoneDruid : win (0/0)
|   |   player1 = ChaosKnight : win (0/0)
|   |   player1 = Meepo : win (0/0)
|   |   player1 = TreantProtector : win (0/0)
|   |   player1 = OgreMagi : win (0/0)
|   |   player1 = Undying : win (0/0)
|   |   player1 = Rubick : win (0/0)
|   |   player1 = Disruptor : win (0/0)
|   |   player1 = NyxAssassin : win (0/0)
|   |   player1 = NagaSiren : win (0/0)
|   |   player1 = KeeperoftheLight : win (0/0)
|   |   player1 = Io : win (0/0)
|   |   player1 = Visage : win (0/0)
|   |   player1 = Slark : lose (1/0)
|   |   player1 = Medusa : win (0/0)
|   |   player1 = TrollWarlord : win (0/0)
|   |   player1 = CentaurWarrunner : win (0/0)
|   |   player1 = Magnus : win (0/0)
|   |   player1 = Timbersaw : win (0/0)
|   |   player1 = Bristleback : win (0/0)
|   |   player1 = Tusk : win (0/0)
|   |   player1 = SkywrathMage : win (0/0)
|   |   player1 = Abaddon : win (0/0)
|   |   player1 = ElderTitan : win (0/0)
|   |   player1 = LegionCommander : win (0/0)
|   |   player1 = EmberSpirit : win (0/0)
|   |   player1 = EarthSpirit : win (0/0)
|   |   player1 = AbyssalUnderlord : win (0/0)
|   |   player1 = Terrorblade : win (0/0)
|   |   player1 = Phoenix : win (0/0)
|   |   player1 = Techies : win (0/0)
|   |   player1 = Oracle : win (0/0)
|   |   player1 = WinterWyvern : win (0/0)
|   |   player1 = ArcWarden : win (0/0)
|   |   player1 = undefined : win (0/0)
|   player3 = Bane : win (1/0)
|   player3 = Bloodseeker : win (0/0)
|   player3 = CrystalMaiden : win (0/0)
|   player3 = DrowRanger : win (0/0)
|   player3 = Earthshaker : win (0/0)
|   player3 = Juggernaut : win (0/0)
|   player3 = Mirana : win (0/0)
|   player3 = ShadowFiend : win (0/0)
|   player3 = Morphling : win (1/0)
|   player3 = PhantomLancer : win (0/0)
|   player3 = Puck : win (0/0)
|   player3 = Pudge : lose (1/0)
|   player3 = Razor : win (0/0)
|   player3 = SandKing : win (0/0)
|   player3 = StormSpirit : win (0/0)
|   player3 = Sven : win (0/0)
|   player3 = Tiny : lose (1/0)
|   player3 = VengefulSpirit : win (0/0)
|   player3 = Windranger : win (0/0)
|   player3 = Zeus : win (0/0)
|   player3 = Kunkka : win (0/0)
|   player3 = Lina : win (0/0)
|   player3 = Lich : win (0/0)
|   player3 = Lion : lose (1/0)
|   player3 = ShadowShaman : win (0/0)
|   player3 = Slardar : win (0/0)
|   player3 = Tidehunter : win (0/0)
|   player3 = WitchDoctor : win (0/0)
|   player3 = Riki : win (2/0)
|   player3 = Enigma : win (0/0)
|   player3 = Tinker : win (0/0)
|   player3 = Sniper : win (0/0)
|   player3 = Necrophos : win (0/0)
|   player3 = Warlock : win (0/0)
|   player3 = Beastmaster : win (0/0)
|   player3 = QueenofPain : win (0/0)
|   player3 = Venomancer : win (0/0)
|   player3 = FacelessVoid : lose (1/0)
|   player3 = WraithKing : win (0/0)
|   player3 = DeathProphet : win (0/0)
|   player3 = PhantomAssassin : lose (1/0)
|   player3 = Pugna : win (0/0)
|   player3 = TemplarAssassin : lose (1/0)
|   player3 = Viper : win (0/0)
|   player3 = Luna : win (0/0)
|   player3 = DragonKnight : win (0/0)
|   player3 = Dazzle : win (0/0)
|   player3 = Clockwerk : win (0/0)
|   player3 = Leshrac : win (0/0)
|   player3 = Nature'sProphet : win (0/0)
|   player3 = Lifestealer : win (0/0)
|   player3 = DarkSeer : win (0/0)
|   player3 = Clinkz : win (0/0)
|   player3 = Omniknight : win (0/0)
|   player3 = Enchantress : win (0/0)
|   player3 = Huskar : win (0/0)
|   player3 = NightStalker : win (0/0)
|   player3 = Broodmother : win (0/0)
|   player3 = BountyHunter : win (0/0)
|   player3 = Weaver : win (0/0)
|   player3 = Jakiro : win (0/0)
|   player3 = Batrider : win (0/0)
|   player3 = Chen : win (0/0)
|   player3 = Spectre : win (0/0)
|   player3 = Doom : lose (1/0)
|   player3 = AncientApparition : win (0/0)
|   player3 = Ursa : win (0/0)
|   player3 = SpiritBreaker : win (0/0)
|   player3 = Gyrocopter : win (0/0)
|   player3 = Alchemist : win (0/0)
|   player3 = Invoker : win (0/0)
|   player3 = Silencer : win (0/0)
|   player3 = OutworldDevourer : win (0/0)
|   player3 = Lycan : win (0/0)
|   player3 = Brewmaster : win (0/0)
|   player3 = ShadowDemon : win (0/0)
|   player3 = LoneDruid : win (0/0)
|   player3 = ChaosKnight : win (0/0)
|   player3 = Meepo : win (0/0)
|   player3 = TreantProtector : win (0/0)
|   player3 = OgreMagi : win (0/0)
|   player3 = Undying : win (0/0)
|   player3 = Rubick : win (0/0)
|   player3 = Disruptor : win (0/0)
|   player3 = NyxAssassin : win (0/0)
|   player3 = NagaSiren : win (0/0)
|   player3 = KeeperoftheLight : win (0/0)
|   player3 = Io : win (0/0)
|   player3 = Visage : win (0/0)
|   player3 = Slark : win (0/0)
|   player3 = Medusa : win (0/0)
|   player3 = TrollWarlord : win (0/0)
|   player3 = CentaurWarrunner : win (0/0)
|   player3 = Magnus : win (0/0)
|   player3 = Timbersaw : win (1/0)
|   player3 = Bristleback : win (0/0)
|   player3 = Tusk : win (0/0)
|   player3 = SkywrathMage : win (0/0)
|   player3 = Abaddon : win (0/0)
|   player3 = ElderTitan : win (0/0)
|   player3 = LegionCommander : win (1/0)
|   player3 = EmberSpirit : win (0/0)
|   player3 = EarthSpirit : win (0/0)
|   player3 = AbyssalUnderlord : win (0/0)
|   player3 = Terrorblade : win (1/0)
|   player3 = Phoenix : win (0/0)
|   player3 = Techies : win (0/0)
|   player3 = Oracle : win (0/0)
|   player3 = WinterWyvern : win (0/0)
|   player3 = ArcWarden : win (0/0)
|   player3 = undefined : win (0/0)
player4 = Juggernaut
|   player1 = Anti-Mage : win (0/0)
|   player1 = Axe : win (0/0)
|   player1 = Bane : win (0/0)
|   player1 = Bloodseeker : win (0/0)
|   player1 = CrystalMaiden : win (0/0)
|   player1 = DrowRanger : lose (1/0)
|   player1 = Earthshaker : win (0/0)
|   player1 = Juggernaut : win (0/0)
|   player1 = Mirana : win (0/0)
|   player1 = ShadowFiend : win (0/0)
|   player1 = Morphling : win (0/0)
|   player1 = PhantomLancer : win (0/0)
|   player1 = Puck : win (0/0)
|   player1 = Pudge : lose (1/0)
|   player1 = Razor : win (0/0)
|   player1 = SandKing : win (0/0)
|   player1 = StormSpirit : win (1/0)
|   player1 = Sven : win (0/0)
|   player1 = Tiny : win (1/0)
|   player1 = VengefulSpirit : win (0/0)
|   player1 = Windranger : lose (1/0)
|   player1 = Zeus : win (0/0)
|   player1 = Kunkka : win (0/0)
|   player1 = Lina : win (0/0)
|   player1 = Lich : win (0/0)
|   player1 = Lion : win (1/0)
|   player1 = ShadowShaman : win (1/0)
|   player1 = Slardar : win (2/0)
|   player1 = Tidehunter : win (0/0)
|   player1 = WitchDoctor : win (1/0)
|   player1 = Riki : win (0/0)
|   player1 = Enigma : win (0/0)
|   player1 = Tinker : win (0/0)
|   player1 = Sniper : lose (1/0)
|   player1 = Necrophos : lose (2/0)
|   player1 = Warlock : win (1/0)
|   player1 = Beastmaster : win (0/0)
|   player1 = QueenofPain : win (0/0)
|   player1 = Venomancer : win (0/0)
|   player1 = FacelessVoid : win (0/0)
|   player1 = WraithKing : win (0/0)
|   player1 = DeathProphet : win (0/0)
|   player1 = PhantomAssassin : win (1/0)
|   player1 = Pugna : win (0/0)
|   player1 = TemplarAssassin : win (1/0)
|   player1 = Viper : win (0/0)
|   player1 = Luna : win (0/0)
|   player1 = DragonKnight : lose (2/0)
|   player1 = Dazzle : win (0/0)
|   player1 = Clockwerk : win (1/0)
|   player1 = Leshrac : win (0/0)
|   player1 = Nature'sProphet : win (0/0)
|   player1 = Lifestealer : win (0/0)
|   player1 = DarkSeer : win (0/0)
|   player1 = Clinkz : win (0/0)
|   player1 = Omniknight : lose (1/0)
|   player1 = Enchantress : win (0/0)
|   player1 = Huskar : win (0/0)
|   player1 = NightStalker : win (0/0)
|   player1 = Broodmother : win (0/0)
|   player1 = BountyHunter : win (0/0)
|   player1 = Weaver : win (0/0)
|   player1 = Jakiro : lose (1/0)
|   player1 = Batrider : win (0/0)
|   player1 = Chen : win (0/0)
|   player1 = Spectre : win (0/0)
|   player1 = Doom : win (0/0)
|   player1 = AncientApparition : win (1/0)
|   player1 = Ursa : win (0/0)
|   player1 = SpiritBreaker : win (0/0)
|   player1 = Gyrocopter : win (0/0)
|   player1 = Alchemist : win (0/0)
|   player1 = Invoker : win (2/0)
|   player1 = Silencer : win (0/0)
|   player1 = OutworldDevourer : win (0/0)
|   player1 = Lycan : win (0/0)
|   player1 = Brewmaster : win (0/0)
|   player1 = ShadowDemon : win (0/0)
|   player1 = LoneDruid : win (0/0)
|   player1 = ChaosKnight : win (0/0)
|   player1 = Meepo : win (0/0)
|   player1 = TreantProtector : win (0/0)
|   player1 = OgreMagi : win (0/0)
|   player1 = Undying : win (0/0)
|   player1 = Rubick : win (0/0)
|   player1 = Disruptor : win (0/0)
|   player1 = NyxAssassin : win (1/0)
|   player1 = NagaSiren : win (0/0)
|   player1 = KeeperoftheLight : win (1/0)
|   player1 = Io : lose (1/0)
|   player1 = Visage : win (0/0)
|   player1 = Slark : win (0/0)
|   player1 = Medusa : win (0/0)
|   player1 = TrollWarlord : win (0/0)
|   player1 = CentaurWarrunner : win (1/0)
|   player1 = Magnus : win (0/0)
|   player1 = Timbersaw : lose (1/0)
|   player1 = Bristleback : win (0/0)
|   player1 = Tusk : win (0/0)
|   player1 = SkywrathMage : win (0/0)
|   player1 = Abaddon : win (0/0)
|   player1 = ElderTitan : win (0/0)
|   player1 = LegionCommander : win (0/0)
|   player1 = EmberSpirit : win (0/0)
|   player1 = EarthSpirit : win (0/0)
|   player1 = AbyssalUnderlord : win (0/0)
|   player1 = Terrorblade : win (0/0)
|   player1 = Phoenix : win (0/0)
|   player1 = Techies : win (0/0)
|   player1 = Oracle : win (0/0)
|   player1 = WinterWyvern : lose (1/0)
|   player1 = ArcWarden : win (0/0)
|   player1 = undefined : win (0/0)
player4 = Mirana
|   player2 = Anti-Mage : win (0/0)
|   player2 = Axe : lose (1/0)
|   player2 = Bane : lose (1/0)
|   player2 = Bloodseeker : win (0/0)
|   player2 = CrystalMaiden : win (0/0)
|   player2 = DrowRanger : win (1/0)
|   player2 = Earthshaker : win (0/0)
|   player2 = Juggernaut : win (0/0)
|   player2 = Mirana : win (0/0)
|   player2 = ShadowFiend : win (0/0)
|   player2 = Morphling : win (1/0)
|   player2 = PhantomLancer : win (0/0)
|   player2 = Puck : win (0/0)
|   player2 = Pudge : win (0/0)
|   player2 = Razor : win (0/0)
|   player2 = SandKing : win (0/0)
|   player2 = StormSpirit
|   |   player1 = Anti-Mage : win (0/0)
|   |   player1 = Axe : win (0/0)
|   |   player1 = Bane : win (0/0)
|   |   player1 = Bloodseeker : win (0/0)
|   |   player1 = CrystalMaiden : win (0/0)
|   |   player1 = DrowRanger : win (0/0)
|   |   player1 = Earthshaker : win (0/0)
|   |   player1 = Juggernaut : win (0/0)
|   |   player1 = Mirana : win (0/0)
|   |   player1 = ShadowFiend : win (0/0)
|   |   player1 = Morphling : win (0/0)
|   |   player1 = PhantomLancer : win (0/0)
|   |   player1 = Puck : win (0/0)
|   |   player1 = Pudge : win (0/0)
|   |   player1 = Razor : win (0/0)
|   |   player1 = SandKing : win (0/0)
|   |   player1 = StormSpirit : win (0/0)
|   |   player1 = Sven : win (0/0)
|   |   player1 = Tiny : win (0/0)
|   |   player1 = VengefulSpirit : win (0/0)
|   |   player1 = Windranger : win (0/0)
|   |   player1 = Zeus : win (0/0)
|   |   player1 = Kunkka : win (0/0)
|   |   player1 = Lina : win (0/0)
|   |   player1 = Lich : win (0/0)
|   |   player1 = Lion : win (0/0)
|   |   player1 = ShadowShaman : win (0/0)
|   |   player1 = Slardar : win (0/0)
|   |   player1 = Tidehunter : win (0/0)
|   |   player1 = WitchDoctor : win (0/0)
|   |   player1 = Riki : win (0/0)
|   |   player1 = Enigma : win (0/0)
|   |   player1 = Tinker : win (0/0)
|   |   player1 = Sniper : win (0/0)
|   |   player1 = Necrophos : win (0/0)
|   |   player1 = Warlock : win (0/0)
|   |   player1 = Beastmaster : win (0/0)
|   |   player1 = QueenofPain : win (0/0)
|   |   player1 = Venomancer : win (0/0)
|   |   player1 = FacelessVoid : win (0/0)
|   |   player1 = WraithKing : win (0/0)
|   |   player1 = DeathProphet : win (0/0)
|   |   player1 = PhantomAssassin : win (0/0)
|   |   player1 = Pugna : win (0/0)
|   |   player1 = TemplarAssassin : win (0/0)
|   |   player1 = Viper : win (0/0)
|   |   player1 = Luna : win (0/0)
|   |   player1 = DragonKnight : win (0/0)
|   |   player1 = Dazzle : win (0/0)
|   |   player1 = Clockwerk : win (0/0)
|   |   player1 = Leshrac : win (0/0)
|   |   player1 = Nature'sProphet : win (0/0)
|   |   player1 = Lifestealer : lose (1/0)
|   |   player1 = DarkSeer : win (0/0)
|   |   player1 = Clinkz : win (0/0)
|   |   player1 = Omniknight : win (0/0)
|   |   player1 = Enchantress : win (0/0)
|   |   player1 = Huskar : win (0/0)
|   |   player1 = NightStalker : win (0/0)
|   |   player1 = Broodmother : win (0/0)
|   |   player1 = BountyHunter : win (0/0)
|   |   player1 = Weaver : win (0/0)
|   |   player1 = Jakiro : win (0/0)
|   |   player1 = Batrider : win (0/0)
|   |   player1 = Chen : win (0/0)
|   |   player1 = Spectre : win (0/0)
|   |   player1 = Doom : win (0/0)
|   |   player1 = AncientApparition : win (0/0)
|   |   player1 = Ursa : win (0/0)
|   |   player1 = SpiritBreaker : win (0/0)
|   |   player1 = Gyrocopter : win (0/0)
|   |   player1 = Alchemist : win (0/0)
|   |   player1 = Invoker : win (0/0)
|   |   player1 = Silencer : win (0/0)
|   |   player1 = OutworldDevourer : win (0/0)
|   |   player1 = Lycan : win (0/0)
|   |   player1 = Brewmaster : win (0/0)
|   |   player1 = ShadowDemon : win (1/0)
|   |   player1 = LoneDruid : win (0/0)
|   |   player1 = ChaosKnight : win (0/0)
|   |   player1 = Meepo : win (0/0)
|   |   player1 = TreantProtector : win (0/0)
|   |   player1 = OgreMagi : win (0/0)
|   |   player1 = Undying : win (0/0)
|   |   player1 = Rubick : win (0/0)
|   |   player1 = Disruptor : win (0/0)
|   |   player1 = NyxAssassin : win (0/0)
|   |   player1 = NagaSiren : win (0/0)
|   |   player1 = KeeperoftheLight : win (0/0)
|   |   player1 = Io : win (0/0)
|   |   player1 = Visage : win (0/0)
|   |   player1 = Slark : win (0/0)
|   |   player1 = Medusa : win (0/0)
|   |   player1 = TrollWarlord : win (0/0)
|   |   player1 = CentaurWarrunner : win (0/0)
|   |   player1 = Magnus : win (0/0)
|   |   player1 = Timbersaw : win (0/0)
|   |   player1 = Bristleback : win (0/0)
|   |   player1 = Tusk : win (0/0)
|   |   player1 = SkywrathMage : win (0/0)
|   |   player1 = Abaddon : win (0/0)
|   |   player1 = ElderTitan : win (0/0)
|   |   player1 = LegionCommander : win (0/0)
|   |   player1 = EmberSpirit : win (0/0)
|   |   player1 = EarthSpirit : win (0/0)
|   |   player1 = AbyssalUnderlord : win (0/0)
|   |   player1 = Terrorblade : win (0/0)
|   |   player1 = Phoenix : win (0/0)
|   |   player1 = Techies : win (0/0)
|   |   player1 = Oracle : win (0/0)
|   |   player1 = WinterWyvern : win (0/0)
|   |   player1 = ArcWarden : win (0/0)
|   |   player1 = undefined : win (0/0)
|   player2 = Sven : win (0/0)
|   player2 = Tiny : win (0/0)
|   player2 = VengefulSpirit : win (0/0)
|   player2 = Windranger : win (0/0)
|   player2 = Zeus : win (1/0)
|   player2 = Kunkka : win (0/0)
|   player2 = Lina : win (1/0)
|   player2 = Lich : lose (1/0)
|   player2 = Lion : win (0/0)
|   player2 = ShadowShaman : win (0/0)
|   player2 = Slardar : win (0/0)
|   player2 = Tidehunter : win (0/0)
|   player2 = WitchDoctor : win (0/0)
|   player2 = Riki : win (0/0)
|   player2 = Enigma : win (0/0)
|   player2 = Tinker : win (0/0)
|   player2 = Sniper : win (0/0)
|   player2 = Necrophos : lose (1/0)
|   player2 = Warlock : win (0/0)
|   player2 = Beastmaster : win (0/0)
|   player2 = QueenofPain : win (0/0)
|   player2 = Venomancer : win (0/0)
|   player2 = FacelessVoid : lose (2/0)
|   player2 = WraithKing : lose (1/0)
|   player2 = DeathProphet : win (0/0)
|   player2 = PhantomAssassin
|   |   player5 = Anti-Mage : win (0/0)
|   |   player5 = Axe : win (0/0)
|   |   player5 = Bane : win (0/0)
|   |   player5 = Bloodseeker : win (0/0)
|   |   player5 = CrystalMaiden : win (0/0)
|   |   player5 = DrowRanger : win (0/0)
|   |   player5 = Earthshaker : win (0/0)
|   |   player5 = Juggernaut : win (0/0)
|   |   player5 = Mirana : win (0/0)
|   |   player5 = ShadowFiend : win (0/0)
|   |   player5 = Morphling : win (0/0)
|   |   player5 = PhantomLancer : win (0/0)
|   |   player5 = Puck : win (0/0)
|   |   player5 = Pudge : win (0/0)
|   |   player5 = Razor : win (0/0)
|   |   player5 = SandKing : win (0/0)
|   |   player5 = StormSpirit : win (0/0)
|   |   player5 = Sven : win (0/0)
|   |   player5 = Tiny : win (0/0)
|   |   player5 = VengefulSpirit : win (0/0)
|   |   player5 = Windranger : win (0/0)
|   |   player5 = Zeus : win (0/0)
|   |   player5 = Kunkka : win (0/0)
|   |   player5 = Lina : win (0/0)
|   |   player5 = Lich : win (1/0)
|   |   player5 = Lion : win (0/0)
|   |   player5 = ShadowShaman : win (0/0)
|   |   player5 = Slardar : win (0/0)
|   |   player5 = Tidehunter : win (0/0)
|   |   player5 = WitchDoctor : win (0/0)
|   |   player5 = Riki : win (0/0)
|   |   player5 = Enigma : win (0/0)
|   |   player5 = Tinker : win (0/0)
|   |   player5 = Sniper : win (0/0)
|   |   player5 = Necrophos : win (0/0)
|   |   player5 = Warlock : win (0/0)
|   |   player5 = Beastmaster : win (0/0)
|   |   player5 = QueenofPain : win (0/0)
|   |   player5 = Venomancer : win (0/0)
|   |   player5 = FacelessVoid : win (0/0)
|   |   player5 = WraithKing : win (0/0)
|   |   player5 = DeathProphet : win (0/0)
|   |   player5 = PhantomAssassin : win (0/0)
|   |   player5 = Pugna : win (0/0)
|   |   player5 = TemplarAssassin : win (0/0)
|   |   player5 = Viper : win (0/0)
|   |   player5 = Luna : win (0/0)
|   |   player5 = DragonKnight : win (0/0)
|   |   player5 = Dazzle : win (0/0)
|   |   player5 = Clockwerk : win (0/0)
|   |   player5 = Leshrac : win (0/0)
|   |   player5 = Nature'sProphet : win (0/0)
|   |   player5 = Lifestealer : win (0/0)
|   |   player5 = DarkSeer : win (0/0)
|   |   player5 = Clinkz : win (0/0)
|   |   player5 = Omniknight : win (0/0)
|   |   player5 = Enchantress : win (0/0)
|   |   player5 = Huskar : win (0/0)
|   |   player5 = NightStalker : win (0/0)
|   |   player5 = Broodmother : win (0/0)
|   |   player5 = BountyHunter : win (0/0)
|   |   player5 = Weaver : win (0/0)
|   |   player5 = Jakiro : win (0/0)
|   |   player5 = Batrider : win (0/0)
|   |   player5 = Chen : win (0/0)
|   |   player5 = Spectre : win (0/0)
|   |   player5 = Doom : win (0/0)
|   |   player5 = AncientApparition : win (0/0)
|   |   player5 = Ursa : win (0/0)
|   |   player5 = SpiritBreaker : win (0/0)
|   |   player5 = Gyrocopter : win (0/0)
|   |   player5 = Alchemist : win (0/0)
|   |   player5 = Invoker : win (0/0)
|   |   player5 = Silencer : win (0/0)
|   |   player5 = OutworldDevourer : win (0/0)
|   |   player5 = Lycan : win (0/0)
|   |   player5 = Brewmaster : win (0/0)
|   |   player5 = ShadowDemon : win (0/0)
|   |   player5 = LoneDruid : win (0/0)
|   |   player5 = ChaosKnight : win (0/0)
|   |   player5 = Meepo : win (0/0)
|   |   player5 = TreantProtector : win (0/0)
|   |   player5 = OgreMagi : lose (1/0)
|   |   player5 = Undying : win (0/0)
|   |   player5 = Rubick : win (0/0)
|   |   player5 = Disruptor : win (0/0)
|   |   player5 = NyxAssassin : win (0/0)
|   |   player5 = NagaSiren : win (0/0)
|   |   player5 = KeeperoftheLight : win (0/0)
|   |   player5 = Io : win (0/0)
|   |   player5 = Visage : win (0/0)
|   |   player5 = Slark : win (0/0)
|   |   player5 = Medusa : win (0/0)
|   |   player5 = TrollWarlord : win (0/0)
|   |   player5 = CentaurWarrunner : win (0/0)
|   |   player5 = Magnus : win (0/0)
|   |   player5 = Timbersaw : win (0/0)
|   |   player5 = Bristleback : win (0/0)
|   |   player5 = Tusk : win (0/0)
|   |   player5 = SkywrathMage : win (0/0)
|   |   player5 = Abaddon : win (0/0)
|   |   player5 = ElderTitan : win (0/0)
|   |   player5 = LegionCommander : win (0/0)
|   |   player5 = EmberSpirit : win (0/0)
|   |   player5 = EarthSpirit : win (0/0)
|   |   player5 = AbyssalUnderlord : win (0/0)
|   |   player5 = Terrorblade : win (0/0)
|   |   player5 = Phoenix : win (0/0)
|   |   player5 = Techies : win (0/0)
|   |   player5 = Oracle : win (0/0)
|   |   player5 = WinterWyvern : win (0/0)
|   |   player5 = ArcWarden : win (0/0)
|   |   player5 = undefined : win (0/0)
|   player2 = Pugna : win (0/0)
|   player2 = TemplarAssassin : win (0/0)
|   player2 = Viper : win (0/0)
|   player2 = Luna : win (0/0)
|   player2 = DragonKnight : win (0/0)
|   player2 = Dazzle : win (0/0)
|   player2 = Clockwerk : win (0/0)
|   player2 = Leshrac : win (0/0)
|   player2 = Nature'sProphet : win (0/0)
|   player2 = Lifestealer : lose (1/0)
|   player2 = DarkSeer : win (0/0)
|   player2 = Clinkz
|   |   player3 = Anti-Mage : win (0/0)
|   |   player3 = Axe : win (0/0)
|   |   player3 = Bane : win (0/0)
|   |   player3 = Bloodseeker : win (0/0)
|   |   player3 = CrystalMaiden : win (0/0)
|   |   player3 = DrowRanger : win (0/0)
|   |   player3 = Earthshaker : win (0/0)
|   |   player3 = Juggernaut : win (0/0)
|   |   player3 = Mirana : win (0/0)
|   |   player3 = ShadowFiend : win (0/0)
|   |   player3 = Morphling : win (0/0)
|   |   player3 = PhantomLancer : win (0/0)
|   |   player3 = Puck : win (0/0)
|   |   player3 = Pudge : win (0/0)
|   |   player3 = Razor : win (0/0)
|   |   player3 = SandKing : win (0/0)
|   |   player3 = StormSpirit : win (0/0)
|   |   player3 = Sven : win (1/0)
|   |   player3 = Tiny : win (0/0)
|   |   player3 = VengefulSpirit : win (0/0)
|   |   player3 = Windranger : win (0/0)
|   |   player3 = Zeus : win (0/0)
|   |   player3 = Kunkka : win (0/0)
|   |   player3 = Lina : win (0/0)
|   |   player3 = Lich : win (0/0)
|   |   player3 = Lion : win (0/0)
|   |   player3 = ShadowShaman : win (0/0)
|   |   player3 = Slardar : win (0/0)
|   |   player3 = Tidehunter : win (0/0)
|   |   player3 = WitchDoctor : win (0/0)
|   |   player3 = Riki : win (0/0)
|   |   player3 = Enigma : win (0/0)
|   |   player3 = Tinker : win (0/0)
|   |   player3 = Sniper : win (0/0)
|   |   player3 = Necrophos : win (0/0)
|   |   player3 = Warlock : win (0/0)
|   |   player3 = Beastmaster : win (0/0)
|   |   player3 = QueenofPain : win (0/0)
|   |   player3 = Venomancer : win (0/0)
|   |   player3 = FacelessVoid : win (0/0)
|   |   player3 = WraithKing : win (0/0)
|   |   player3 = DeathProphet : win (0/0)
|   |   player3 = PhantomAssassin : win (0/0)
|   |   player3 = Pugna : win (0/0)
|   |   player3 = TemplarAssassin : win (0/0)
|   |   player3 = Viper : win (0/0)
|   |   player3 = Luna : win (0/0)
|   |   player3 = DragonKnight : win (0/0)
|   |   player3 = Dazzle : win (0/0)
|   |   player3 = Clockwerk : win (0/0)
|   |   player3 = Leshrac : win (0/0)
|   |   player3 = Nature'sProphet : win (0/0)
|   |   player3 = Lifestealer : win (0/0)
|   |   player3 = DarkSeer : win (0/0)
|   |   player3 = Clinkz : win (0/0)
|   |   player3 = Omniknight : win (0/0)
|   |   player3 = Enchantress : win (0/0)
|   |   player3 = Huskar : win (0/0)
|   |   player3 = NightStalker : win (0/0)
|   |   player3 = Broodmother : win (0/0)
|   |   player3 = BountyHunter : win (0/0)
|   |   player3 = Weaver : win (0/0)
|   |   player3 = Jakiro : win (0/0)
|   |   player3 = Batrider : win (0/0)
|   |   player3 = Chen : win (0/0)
|   |   player3 = Spectre : win (0/0)
|   |   player3 = Doom : win (0/0)
|   |   player3 = AncientApparition : win (0/0)
|   |   player3 = Ursa : win (0/0)
|   |   player3 = SpiritBreaker : win (0/0)
|   |   player3 = Gyrocopter : win (0/0)
|   |   player3 = Alchemist : win (0/0)
|   |   player3 = Invoker : win (0/0)
|   |   player3 = Silencer : win (0/0)
|   |   player3 = OutworldDevourer : win (0/0)
|   |   player3 = Lycan : win (0/0)
|   |   player3 = Brewmaster : win (0/0)
|   |   player3 = ShadowDemon : win (0/0)
|   |   player3 = LoneDruid : win (0/0)
|   |   player3 = ChaosKnight : win (0/0)
|   |   player3 = Meepo : win (0/0)
|   |   player3 = TreantProtector : win (0/0)
|   |   player3 = OgreMagi : win (0/0)
|   |   player3 = Undying : win (0/0)
|   |   player3 = Rubick : win (0/0)
|   |   player3 = Disruptor : win (0/0)
|   |   player3 = NyxAssassin : win (0/0)
|   |   player3 = NagaSiren : win (0/0)
|   |   player3 = KeeperoftheLight : win (0/0)
|   |   player3 = Io : win (0/0)
|   |   player3 = Visage : win (0/0)
|   |   player3 = Slark : win (0/0)
|   |   player3 = Medusa : win (0/0)
|   |   player3 = TrollWarlord : win (0/0)
|   |   player3 = CentaurWarrunner : win (0/0)
|   |   player3 = Magnus : win (0/0)
|   |   player3 = Timbersaw : win (0/0)
|   |   player3 = Bristleback : win (0/0)
|   |   player3 = Tusk : win (0/0)
|   |   player3 = SkywrathMage : win (0/0)
|   |   player3 = Abaddon : win (0/0)
|   |   player3 = ElderTitan : win (0/0)
|   |   player3 = LegionCommander : win (0/0)
|   |   player3 = EmberSpirit : win (0/0)
|   |   player3 = EarthSpirit : win (0/0)
|   |   player3 = AbyssalUnderlord : win (0/0)
|   |   player3 = Terrorblade : win (0/0)
|   |   player3 = Phoenix : win (0/0)
|   |   player3 = Techies : win (0/0)
|   |   player3 = Oracle : win (0/0)
|   |   player3 = WinterWyvern : lose (1/0)
|   |   player3 = ArcWarden : win (0/0)
|   |   player3 = undefined : win (0/0)
|   player2 = Omniknight : win (1/0)
|   player2 = Enchantress : win (0/0)
|   player2 = Huskar : win (0/0)
|   player2 = NightStalker : lose (2/0)
|   player2 = Broodmother : lose (1/0)
|   player2 = BountyHunter : win (1/0)
|   player2 = Weaver : win (0/0)
|   player2 = Jakiro : win (0/0)
|   player2 = Batrider : win (0/0)
|   player2 = Chen : win (0/0)
|   player2 = Spectre : win (0/0)
|   player2 = Doom : win (0/0)
|   player2 = AncientApparition : win (1/0)
|   player2 = Ursa : win (0/0)
|   player2 = SpiritBreaker : win (0/0)
|   player2 = Gyrocopter : win (0/0)
|   player2 = Alchemist : win (0/0)
|   player2 = Invoker : win (2/0)
|   player2 = Silencer : win (1/0)
|   player2 = OutworldDevourer : win (0/0)
|   player2 = Lycan : win (0/0)
|   player2 = Brewmaster : win (0/0)
|   player2 = ShadowDemon : win (0/0)
|   player2 = LoneDruid : win (0/0)
|   player2 = ChaosKnight : lose (1/0)
|   player2 = Meepo : win (0/0)
|   player2 = TreantProtector : win (0/0)
|   player2 = OgreMagi : lose (1/0)
|   player2 = Undying : win (0/0)
|   player2 = Rubick : win (0/0)
|   player2 = Disruptor : win (1/0)
|   player2 = NyxAssassin : win (0/0)
|   player2 = NagaSiren : win (0/0)
|   player2 = KeeperoftheLight : win (0/0)
|   player2 = Io : win (0/0)
|   player2 = Visage : win (0/0)
|   player2 = Slark : lose (1/0)
|   player2 = Medusa : lose (1/0)
|   player2 = TrollWarlord : win (0/0)
|   player2 = CentaurWarrunner : win (0/0)
|   player2 = Magnus : win (0/0)
|   player2 = Timbersaw : win (0/0)
|   player2 = Bristleback : win (0/0)
|   player2 = Tusk : win (0/0)
|   player2 = SkywrathMage : win (0/0)
|   player2 = Abaddon : win (0/0)
|   player2 = ElderTitan : win (0/0)
|   player2 = LegionCommander : win (0/0)
|   player2 = EmberSpirit : lose (1/0)
|   player2 = EarthSpirit : lose (2/0)
|   player2 = AbyssalUnderlord : win (0/0)
|   player2 = Terrorblade : win (0/0)
|   player2 = Phoenix : win (0/0)
|   player2 = Techies : win (0/0)
|   player2 = Oracle : win (0/0)
|   player2 = WinterWyvern : win (0/0)
|   player2 = ArcWarden : win (0/0)
|   player2 = undefined : win (0/0)
player4 = ShadowFiend
|   player2 = Anti-Mage : win (0/0)
|   player2 = Axe : win (0/0)
|   player2 = Bane : win (0/0)
|   player2 = Bloodseeker : win (0/0)
|   player2 = CrystalMaiden : win (0/0)
|   player2 = DrowRanger : win (0/0)
|   player2 = Earthshaker : win (0/0)
|   player2 = Juggernaut : win (0/0)
|   player2 = Mirana : win (0/0)
|   player2 = ShadowFiend : win (0/0)
|   player2 = Morphling : win (0/0)
|   player2 = PhantomLancer : win (0/0)
|   player2 = Puck : win (0/0)
|   player2 = Pudge : win (0/0)
|   player2 = Razor : win (0/0)
|   player2 = SandKing : win (0/0)
|   player2 = StormSpirit : win (0/0)
|   player2 = Sven : win (0/0)
|   player2 = Tiny : win (0/0)
|   player2 = VengefulSpirit : win (0/0)
|   player2 = Windranger : win (0/0)
|   player2 = Zeus : win (0/0)
|   player2 = Kunkka : win (0/0)
|   player2 = Lina : win (0/0)
|   player2 = Lich : win (0/0)
|   player2 = Lion : win (0/0)
|   player2 = ShadowShaman : win (0/0)
|   player2 = Slardar : lose (1/0)
|   player2 = Tidehunter : win (1/0)
|   player2 = WitchDoctor : lose (1/0)
|   player2 = Riki : win (0/0)
|   player2 = Enigma : win (0/0)
|   player2 = Tinker : win (0/0)
|   player2 = Sniper : win (0/0)
|   player2 = Necrophos : win (0/0)
|   player2 = Warlock : win (0/0)
|   player2 = Beastmaster : win (0/0)
|   player2 = QueenofPain : win (0/0)
|   player2 = Venomancer : win (0/0)
|   player2 = FacelessVoid : win (0/0)
|   player2 = WraithKing : win (1/0)
|   player2 = DeathProphet : win (0/0)
|   player2 = PhantomAssassin : win (0/0)
|   player2 = Pugna : win (0/0)
|   player2 = TemplarAssassin : win (0/0)
|   player2 = Viper : win (0/0)
|   player2 = Luna : win (0/0)
|   player2 = DragonKnight : win (0/0)
|   player2 = Dazzle : win (0/0)
|   player2 = Clockwerk : win (0/0)
|   player2 = Leshrac : win (0/0)
|   player2 = Nature'sProphet : win (0/0)
|   player2 = Lifestealer : win (0/0)
|   player2 = DarkSeer : win (0/0)
|   player2 = Clinkz : win (0/0)
|   player2 = Omniknight : win (1/0)
|   player2 = Enchantress : win (0/0)
|   player2 = Huskar : win (0/0)
|   player2 = NightStalker : win (0/0)
|   player2 = Broodmother : win (0/0)
|   player2 = BountyHunter : win (0/0)
|   player2 = Weaver : win (0/0)
|   player2 = Jakiro : win (0/0)
|   player2 = Batrider : win (0/0)
|   player2 = Chen : win (0/0)
|   player2 = Spectre : win (0/0)
|   player2 = Doom : win (0/0)
|   player2 = AncientApparition : win (0/0)
|   player2 = Ursa : win (0/0)
|   player2 = SpiritBreaker : win (0/0)
|   player2 = Gyrocopter : win (0/0)
|   player2 = Alchemist : win (0/0)
|   player2 = Invoker : win (0/0)
|   player2 = Silencer : win (0/0)
|   player2 = OutworldDevourer : win (0/0)
|   player2 = Lycan : win (0/0)
|   player2 = Brewmaster : win (0/0)
|   player2 = ShadowDemon : win (0/0)
|   player2 = LoneDruid : win (0/0)
|   player2 = ChaosKnight : win (0/0)
|   player2 = Meepo : win (0/0)
|   player2 = TreantProtector : win (0/0)
|   player2 = OgreMagi : win (0/0)
|   player2 = Undying : win (0/0)
|   player2 = Rubick : lose (1/0)
|   player2 = Disruptor : win (0/0)
|   player2 = NyxAssassin : win (0/0)
|   player2 = NagaSiren : win (0/0)
|   player2 = KeeperoftheLight : win (0/0)
|   player2 = Io : win (1/0)
|   player2 = Visage : win (0/0)
|   player2 = Slark : win (0/0)
|   player2 = Medusa : lose (1/0)
|   player2 = TrollWarlord : win (0/0)
|   player2 = CentaurWarrunner : win (1/0)
|   player2 = Magnus : win (0/0)
|   player2 = Timbersaw : win (0/0)
|   player2 = Bristleback : win (0/0)
|   player2 = Tusk : win (0/0)
|   player2 = SkywrathMage : win (0/0)
|   player2 = Abaddon : win (0/0)
|   player2 = ElderTitan : win (0/0)
|   player2 = LegionCommander : win (0/0)
|   player2 = EmberSpirit : win (0/0)
|   player2 = EarthSpirit : win (0/0)
|   player2 = AbyssalUnderlord : win (0/0)
|   player2 = Terrorblade : lose (1/0)
|   player2 = Phoenix : win (1/0)
|   player2 = Techies : win (0/0)
|   player2 = Oracle : win (0/0)
|   player2 = WinterWyvern : win (0/0)
|   player2 = ArcWarden : win (0/0)
|   player2 = undefined : lose (1/0)
player4 = Morphling
|   player5 = Anti-Mage : win (1/0)
|   player5 = Axe : win (1/0)
|   player5 = Bane : win (0/0)
|   player5 = Bloodseeker : win (0/0)
|   player5 = CrystalMaiden : win (1/0)
|   player5 = DrowRanger : win (0/0)
|   player5 = Earthshaker : win (1/0)
|   player5 = Juggernaut : win (0/0)
|   player5 = Mirana : win (0/0)
|   player5 = ShadowFiend : win (0/0)
|   player5 = Morphling : win (0/0)
|   player5 = PhantomLancer : win (0/0)
|   player5 = Puck : win (0/0)
|   player5 = Pudge : lose (1/0)
|   player5 = Razor : win (0/0)
|   player5 = SandKing : win (0/0)
|   player5 = StormSpirit : win (0/0)
|   player5 = Sven : win (0/0)
|   player5 = Tiny : win (0/0)
|   player5 = VengefulSpirit : lose (1/0)
|   player5 = Windranger : lose (1/0)
|   player5 = Zeus : win (0/0)
|   player5 = Kunkka : win (1/0)
|   player5 = Lina : win (0/0)
|   player5 = Lich : win (0/0)
|   player5 = Lion : win (0/0)
|   player5 = ShadowShaman : win (0/0)
|   player5 = Slardar : win (0/0)
|   player5 = Tidehunter : win (0/0)
|   player5 = WitchDoctor : win (0/0)
|   player5 = Riki : win (0/0)
|   player5 = Enigma : win (0/0)
|   player5 = Tinker : win (0/0)
|   player5 = Sniper : win (0/0)
|   player5 = Necrophos : win (0/0)
|   player5 = Warlock : win (0/0)
|   player5 = Beastmaster : win (0/0)
|   player5 = QueenofPain : win (0/0)
|   player5 = Venomancer : win (0/0)
|   player5 = FacelessVoid : win (0/0)
|   player5 = WraithKing : win (1/0)
|   player5 = DeathProphet : win (0/0)
|   player5 = PhantomAssassin : lose (1/0)
|   player5 = Pugna : win (0/0)
|   player5 = TemplarAssassin : win (0/0)
|   player5 = Viper : win (0/0)
|   player5 = Luna : win (0/0)
|   player5 = DragonKnight : win (0/0)
|   player5 = Dazzle : win (0/0)
|   player5 = Clockwerk : win (1/0)
|   player5 = Leshrac : win (0/0)
|   player5 = Nature'sProphet : lose (1/0)
|   player5 = Lifestealer : win (0/0)
|   player5 = DarkSeer : win (0/0)
|   player5 = Clinkz : win (0/0)
|   player5 = Omniknight : win (0/0)
|   player5 = Enchantress : win (0/0)
|   player5 = Huskar : lose (1/0)
|   player5 = NightStalker : win (0/0)
|   player5 = Broodmother : win (0/0)
|   player5 = BountyHunter : win (0/0)
|   player5 = Weaver : win (0/0)
|   player5 = Jakiro : win (0/0)
|   player5 = Batrider : win (0/0)
|   player5 = Chen : win (0/0)
|   player5 = Spectre : win (0/0)
|   player5 = Doom : win (0/0)
|   player5 = AncientApparition : win (0/0)
|   player5 = Ursa
|   |   player2 = Anti-Mage : win (0/0)
|   |   player2 = Axe : win (0/0)
|   |   player2 = Bane : win (0/0)
|   |   player2 = Bloodseeker : win (0/0)
|   |   player2 = CrystalMaiden : win (0/0)
|   |   player2 = DrowRanger : win (0/0)
|   |   player2 = Earthshaker : win (0/0)
|   |   player2 = Juggernaut : win (1/0)
|   |   player2 = Mirana : win (0/0)
|   |   player2 = ShadowFiend : win (0/0)
|   |   player2 = Morphling : win (0/0)
|   |   player2 = PhantomLancer : win (0/0)
|   |   player2 = Puck : win (0/0)
|   |   player2 = Pudge : win (0/0)
|   |   player2 = Razor : win (0/0)
|   |   player2 = SandKing : win (0/0)
|   |   player2 = StormSpirit : win (0/0)
|   |   player2 = Sven : win (0/0)
|   |   player2 = Tiny : win (0/0)
|   |   player2 = VengefulSpirit : win (0/0)
|   |   player2 = Windranger : win (0/0)
|   |   player2 = Zeus : win (0/0)
|   |   player2 = Kunkka : win (0/0)
|   |   player2 = Lina : win (0/0)
|   |   player2 = Lich : win (0/0)
|   |   player2 = Lion : win (0/0)
|   |   player2 = ShadowShaman : win (0/0)
|   |   player2 = Slardar : win (0/0)
|   |   player2 = Tidehunter : win (0/0)
|   |   player2 = WitchDoctor : win (0/0)
|   |   player2 = Riki : win (0/0)
|   |   player2 = Enigma : win (0/0)
|   |   player2 = Tinker : win (0/0)
|   |   player2 = Sniper : win (0/0)
|   |   player2 = Necrophos : win (0/0)
|   |   player2 = Warlock : win (0/0)
|   |   player2 = Beastmaster : win (0/0)
|   |   player2 = QueenofPain : win (0/0)
|   |   player2 = Venomancer : win (0/0)
|   |   player2 = FacelessVoid : win (0/0)
|   |   player2 = WraithKing : win (0/0)
|   |   player2 = DeathProphet : win (0/0)
|   |   player2 = PhantomAssassin : win (0/0)
|   |   player2 = Pugna : win (0/0)
|   |   player2 = TemplarAssassin : win (0/0)
|   |   player2 = Viper : win (0/0)
|   |   player2 = Luna : win (0/0)
|   |   player2 = DragonKnight : win (0/0)
|   |   player2 = Dazzle : win (0/0)
|   |   player2 = Clockwerk : win (0/0)
|   |   player2 = Leshrac : win (0/0)
|   |   player2 = Nature'sProphet : win (0/0)
|   |   player2 = Lifestealer : win (0/0)
|   |   player2 = DarkSeer : win (0/0)
|   |   player2 = Clinkz : win (0/0)
|   |   player2 = Omniknight : lose (1/0)
|   |   player2 = Enchantress : win (0/0)
|   |   player2 = Huskar : win (0/0)
|   |   player2 = NightStalker : win (0/0)
|   |   player2 = Broodmother : win (0/0)
|   |   player2 = BountyHunter : win (0/0)
|   |   player2 = Weaver : win (0/0)
|   |   player2 = Jakiro : win (0/0)
|   |   player2 = Batrider : win (0/0)
|   |   player2 = Chen : win (0/0)
|   |   player2 = Spectre : win (0/0)
